Parameter name: pos_embedding, Parameter value: tensor([[[-0.3186, -1.4704,  0.5418,  ...,  1.7679, -0.7127, -0.1558],
         [ 1.5475, -1.0440, -1.3533,  ..., -0.5427, -1.3169,  1.0915],
         [-3.0100,  1.2102,  0.2181,  ..., -0.7691,  0.2102,  0.4097],
         ...,
         [-0.6757, -0.7543, -1.2045,  ..., -1.5964,  0.9920,  0.6126],
         [ 0.2085,  0.6057,  0.1534,  ...,  0.0303,  0.7126,  0.8499],
         [ 1.7723, -0.3500,  0.0486,  ...,  2.1192,  1.5243,  0.6671]]],
       device='cuda:0')
Parameter name: cls_token, Parameter value: tensor([[[-7.0091e-01, -1.1771e+00, -1.2222e+00, -1.9847e+00,  8.0706e-01,
           6.9568e-02,  8.4051e-01,  1.0340e+00,  1.3114e-01, -1.5117e+00,
          -5.6089e-02, -1.4804e+00,  2.5986e-01, -3.2470e-01, -3.6338e-01,
           5.9068e-01,  1.0100e+00,  4.2785e-02, -6.4914e-01,  3.3899e-02,
           9.9240e-01,  1.0585e+00,  1.1230e+00,  2.0858e+00,  5.7083e-01,
          -5.3749e-01, -6.9192e-01,  1.0717e+00,  1.3009e-01, -1.5767e-01,
           1.1614e+00,  4.2678e-01,  1.9038e+00,  2.8346e+00, -1.2463e+00,
           3.8298e-01, -1.0041e+00, -1.2964e+00, -4.7329e-01, -6.2844e-01,
           5.8062e-02,  5.3578e-01,  3.7677e-01, -1.3624e+00, -1.2242e+00,
           7.9695e-01,  8.8681e-01,  6.8542e-01, -1.7571e+00,  4.2994e-01,
          -2.7243e-01, -1.5355e+00,  1.2607e+00,  9.6516e-01, -1.0954e+00,
           1.2743e+00,  8.3289e-01, -4.7367e-01, -4.3389e-01,  1.0215e-01,
          -1.9041e-01,  1.7529e-01,  2.9403e-01,  1.1945e+00,  1.1229e+00,
           3.4263e-01, -1.2479e+00,  3.2455e-01, -8.2453e-02, -1.4824e+00,
          -5.6088e-01, -1.9771e+00,  7.5160e-01, -1.1940e+00,  5.0753e-01,
           1.1373e+00, -1.4032e+00,  5.6847e-02,  9.5316e-01, -6.5126e-01,
           4.1406e-01,  1.6208e+00,  4.7161e-01, -1.4103e+00, -3.9781e-01,
           1.1144e-01, -1.0733e-01, -1.0412e+00,  3.2645e-01,  6.7622e-01,
           2.2368e-01, -1.0577e+00, -7.4059e-01,  5.7668e-01,  1.0940e+00,
           4.3861e-01, -4.8192e-01, -1.9948e-01,  1.3489e-01,  1.6610e+00,
          -2.9361e-01, -1.3892e-01, -9.0991e-01, -3.0763e-01, -1.4900e+00,
          -1.7120e-01, -9.0734e-01,  8.6425e-01,  9.7601e-01, -9.4539e-01,
           4.6896e-01,  4.8230e-01,  6.3703e-01, -8.7383e-01,  1.0493e+00,
          -3.9182e-01, -3.9489e+00,  1.6538e-01,  5.8557e-01, -1.6071e-01,
          -6.6959e-01, -1.4499e+00,  1.2282e+00,  3.1331e-01, -1.7661e+00,
           3.8884e-01,  1.4926e+00,  2.2178e+00,  2.5968e-01, -1.2421e+00,
          -5.4765e-01,  5.7362e-01, -5.2805e-01,  2.2921e-01, -5.7493e-01,
           2.9662e-01,  3.5147e-01, -3.9610e-01,  5.4198e-01, -2.7924e-01,
           4.6242e-01, -2.0355e+00,  3.7620e-01,  3.5692e-01, -3.4108e+00,
           6.6296e-01,  1.2437e+00,  1.1325e+00,  4.3566e-01,  6.3298e-01,
          -1.4215e-01, -4.7754e-01, -8.0360e-01,  9.3042e-01, -9.8464e-01,
          -1.2360e-01,  9.9548e-01,  7.1240e-01,  3.9617e-01,  3.2513e-01,
           1.1537e+00, -2.4042e-01,  3.5949e-01, -1.4874e+00, -9.3928e-01,
          -3.8276e-01, -5.3536e-01,  1.3855e+00, -1.8860e+00,  1.9922e-01,
          -1.8416e+00, -5.0202e-01, -1.1557e-01,  2.5902e-01, -1.2652e+00,
          -4.7616e-01, -9.0134e-01,  5.9444e-01,  2.4923e-01, -2.0207e-01,
           1.4466e+00,  1.1516e+00,  2.6670e-01, -1.0261e+00, -4.5896e-01,
           1.1744e+00,  2.7641e-02,  8.8400e-01,  1.1579e+00,  1.0261e+00,
          -1.7929e-01,  1.0839e+00,  1.0683e+00,  8.5863e-01, -1.1883e+00,
          -7.9158e-01, -3.1926e-01,  9.5623e-02,  1.7128e+00,  9.1771e-01,
          -9.3112e-01, -8.6338e-02,  6.2085e-01,  1.1809e+00,  2.1292e+00,
          -3.6335e-01,  2.5430e+00,  8.0677e-01, -1.1851e+00,  4.1740e-02,
          -7.4448e-01,  4.9095e-01,  1.2701e+00,  1.0623e+00, -5.8077e-01,
          -5.9807e-01,  2.3538e-02,  1.0005e+00, -8.5926e-01, -1.4658e-01,
           9.1036e-01, -7.8728e-01, -6.9776e-01, -1.5415e+00, -4.1281e-01,
          -6.5037e-02,  2.6784e-01, -1.6934e+00,  4.1589e-01,  1.8629e-01,
          -2.7651e+00, -2.8212e-01, -1.4290e-01, -3.0510e-01,  6.8686e-01,
          -2.7338e-01,  1.0419e-01, -6.3078e-01,  5.3605e-01,  1.3335e-01,
           6.5480e-01, -1.0051e+00, -5.9308e-02,  1.5507e+00, -9.0701e-01,
           1.0417e+00, -6.7615e-01, -4.3211e-01, -5.6083e-01, -4.7254e-01,
           3.9448e-01,  9.3636e-02, -5.8122e-01, -2.5159e-01,  7.0028e-01,
          -1.0897e+00,  1.9825e-01, -3.5844e-01, -1.2070e-01, -1.2403e+00,
          -2.1906e+00,  2.0937e+00,  1.6698e+00, -2.1315e+00,  6.2872e-01,
           1.3009e+00, -3.9846e-01,  1.5810e-01,  6.8262e-01,  5.1840e-01,
          -1.2365e+00,  3.6594e-02,  1.8129e-01, -2.2692e+00, -1.0889e+00,
          -3.6453e-01,  4.8807e-01, -6.5340e-01,  5.6473e-01,  8.7559e-01,
          -1.9665e+00, -1.4989e+00, -2.4710e+00, -1.2274e+00,  3.4406e-01,
           7.7431e-01,  7.2327e-01, -2.0606e-01, -7.2523e-01,  1.0284e+00,
           2.3197e+00,  1.7054e-01, -7.2003e-02, -1.0721e+00, -1.2799e+00,
          -9.1583e-01,  3.5919e-01, -7.5918e-01,  1.5319e-01, -5.3880e-01,
           8.4087e-01,  9.1009e-01, -1.7056e-01,  6.4342e-01,  1.1410e+00,
          -2.2533e-01,  1.0234e+00,  1.2889e+00, -1.9348e-01,  1.0182e+00,
           8.9272e-01, -4.6593e-01,  1.2317e+00, -1.2828e+00, -1.4048e+00,
           1.0249e-01, -6.7935e-01,  1.3457e+00,  8.6246e-01, -4.3604e-01,
          -2.4423e+00,  2.0469e+00,  6.6712e-01, -1.4951e-01,  1.2460e+00,
           6.8374e-01,  1.9539e+00,  1.8316e+00,  1.8756e-02,  7.8531e-01,
          -7.9803e-01,  9.3751e-01, -3.9586e-01,  1.2298e-01, -8.3494e-01,
           1.4238e+00, -7.4072e-01, -7.6619e-01, -1.4332e+00, -1.3946e+00,
           6.2037e-01, -5.8149e-02,  1.1625e+00, -7.4563e-01,  2.2110e-01,
          -1.8500e+00, -6.1070e-01, -7.7468e-02, -7.9237e-02, -1.4387e+00,
          -5.8019e-01, -2.1301e+00,  5.7562e-01,  8.8507e-01,  5.2599e-01,
           3.6044e-01, -2.7884e-01,  3.4909e-01, -5.0677e-01,  1.5428e+00,
           4.9303e-01,  4.1934e-02, -1.4080e+00, -4.9568e-01,  1.4774e+00,
          -1.7006e+00,  4.9592e-01, -2.5593e+00, -1.3029e+00,  9.5532e-01,
          -1.5284e-01,  7.9271e-01,  1.4477e+00, -1.0103e+00,  2.1439e-01,
           6.9713e-01, -1.5019e+00,  8.4048e-02,  4.5598e-01, -2.2636e+00,
           9.6029e-01,  7.3721e-01, -1.3110e+00, -5.1868e-01, -1.8350e+00,
          -1.9589e-01,  3.3155e-01, -1.5715e+00,  2.1507e+00, -3.6157e-01,
          -9.3941e-01, -6.1860e-01,  9.3118e-01, -8.0173e-01, -8.5822e-01,
          -4.0769e-01, -8.5199e-01,  3.9857e-01, -7.4123e-01,  1.3914e+00,
           1.4009e+00, -1.2557e-01,  7.3816e-01,  2.8476e-03, -4.0981e-01,
           1.2650e+00, -1.5230e+00,  8.4648e-01, -8.0634e-01,  1.0613e-01,
           6.8280e-02,  9.2265e-01,  3.9844e-01, -1.2734e+00, -7.9321e-01,
           1.2960e+00, -4.6014e-01, -1.1684e+00, -1.7506e-01,  1.0905e-01,
           1.4546e+00,  4.0171e-01, -5.3058e-01, -6.5794e-01,  3.9884e-01,
          -1.9443e+00,  7.5598e-01,  9.6452e-01, -6.6164e-01,  5.2460e-01,
          -8.3318e-01,  1.6402e+00,  1.7473e+00, -3.7000e-02, -1.0775e-01,
          -6.0924e-02,  1.2042e+00,  3.9661e-01, -8.2032e-01, -1.0707e+00,
          -1.4678e+00,  8.2314e-01, -7.9262e-01,  9.8021e-01,  4.7324e-01,
           7.0894e-01,  1.0685e+00, -7.0673e-01,  7.4105e-01,  4.5947e-01,
          -7.4481e-02, -2.1443e-01,  7.1384e-02, -1.8206e-01,  3.5591e-01,
          -1.5580e+00, -4.3848e-01, -2.9676e-01,  1.1299e+00,  6.7229e-01,
           1.1984e+00,  1.4178e+00,  3.2517e+00, -2.2384e-01, -1.1195e+00,
          -1.4618e-02, -1.3161e+00,  9.0437e-02,  1.0593e+00,  6.0379e-01,
           2.2773e+00,  1.4029e+00,  4.9208e-01, -5.9326e-01,  8.2246e-01,
           1.0841e+00,  1.5565e+00, -1.4179e+00,  2.0250e-01,  8.1447e-03,
           7.6906e-01, -1.0881e+00,  5.2757e-01, -1.8000e+00,  8.9465e-01,
          -4.8144e-01,  4.8309e-02,  9.9098e-01,  1.6855e+00,  1.0572e-02,
           1.0653e+00, -1.6272e-01,  1.4243e+00,  4.2197e-01,  9.1541e-02,
          -8.8573e-01, -1.1623e+00,  3.8499e-01, -6.4203e-01,  1.7794e+00,
          -2.8095e+00, -6.6546e-01,  1.0968e+00,  1.1060e+00,  5.0808e-01,
           1.5567e+00,  6.0476e-02,  2.1029e-02,  1.7084e+00,  1.3982e-02,
          -9.0695e-01,  9.4258e-01]]], device='cuda:0')
Parameter name: to_patch_embedding.1.weight, Parameter value: tensor([0.9808, 0.9597, 0.9765, 1.0167, 1.0401, 0.9870, 0.9982, 1.0376, 0.9992,
        0.9784, 0.9862, 0.9813, 0.9786, 0.9885, 0.9861, 1.0141, 1.0506, 1.0099,
        1.0345, 1.0788, 0.9927, 0.9930, 1.0229, 0.9880, 0.9880, 1.0330, 0.9951,
        1.0185, 1.0495, 1.0330, 1.0336, 1.0445, 1.0182, 0.9928, 1.0435, 1.0077,
        0.9827, 0.9832, 1.0059, 1.0103, 1.0172, 1.0206, 1.0105, 1.0225, 1.0252,
        0.9969, 0.9990, 0.9913], device='cuda:0')
Parameter name: to_patch_embedding.1.bias, Parameter value: tensor([ 0.0030, -0.0079, -0.0071,  0.0132,  0.0005, -0.0156,  0.0126,  0.0120,
         0.0038,  0.0012, -0.0033, -0.0110,  0.0073,  0.0223, -0.0324, -0.0053,
         0.0231, -0.0351,  0.0006,  0.0152, -0.0202,  0.0147, -0.0034, -0.0187,
         0.0028,  0.0240, -0.0014, -0.0015,  0.0181, -0.0185,  0.0112,  0.0217,
        -0.0321,  0.0049,  0.0022, -0.0150,  0.0068,  0.0071,  0.0022, -0.0028,
         0.0179, -0.0194,  0.0156,  0.0108,  0.0057,  0.0058, -0.0035, -0.0160],
       device='cuda:0')
Parameter name: to_patch_embedding.2.weight, Parameter value: tensor([[-0.0205,  0.0564, -0.0771,  ...,  0.0422, -0.0516,  0.1045],
        [ 0.0816,  0.0619,  0.0725,  ..., -0.0372,  0.0244, -0.0815],
        [-0.1255,  0.1222,  0.1479,  ..., -0.0038,  0.0906,  0.0433],
        ...,
        [ 0.0057,  0.1283, -0.1112,  ...,  0.0499, -0.1562, -0.0261],
        [-0.1165,  0.1582,  0.0335,  ...,  0.0034,  0.0789,  0.1506],
        [-0.1339, -0.0295,  0.0888,  ..., -0.0112,  0.1006, -0.1250]],
       device='cuda:0')
Parameter name: to_patch_embedding.2.bias, Parameter value: tensor([ 0.0906,  0.0063, -0.0691, -0.1211, -0.0745,  0.0813, -0.1156, -0.0740,
        -0.0812,  0.0574,  0.1118,  0.0230,  0.1205, -0.0018,  0.0027,  0.0986,
         0.0478,  0.1067, -0.0987, -0.1104, -0.0399, -0.0826, -0.0925,  0.0225,
        -0.0322,  0.0649, -0.0277, -0.0162, -0.0178,  0.0554, -0.0657, -0.0078,
         0.0053,  0.0380,  0.0380,  0.0303,  0.0993, -0.0450,  0.0335,  0.0029,
        -0.0689, -0.1141, -0.1145,  0.1086, -0.0293, -0.0788, -0.0314, -0.0540,
        -0.0442,  0.0028,  0.0047, -0.0012,  0.0553,  0.0809,  0.0088,  0.1380,
         0.0965, -0.0124,  0.0242, -0.0650, -0.0093, -0.0615,  0.0055,  0.0070,
         0.0747,  0.0220,  0.0344, -0.1039, -0.0620, -0.0160,  0.0528,  0.0048,
         0.0792, -0.1366,  0.0039,  0.0186, -0.0106, -0.0303, -0.0249,  0.0788,
         0.0849, -0.0674, -0.0689, -0.0966,  0.0551,  0.0528,  0.1164, -0.0099,
         0.0515, -0.0292,  0.0639, -0.0532, -0.0284, -0.0656, -0.0979,  0.0808,
        -0.0186, -0.0051, -0.0527,  0.0158, -0.0307,  0.1293,  0.0434, -0.0253,
         0.1026,  0.0526, -0.0438, -0.0815, -0.0491, -0.0314,  0.0699,  0.0030,
         0.0740, -0.1186,  0.0678,  0.0561,  0.0101, -0.1007,  0.0908,  0.0870,
        -0.0280,  0.0569, -0.0271, -0.0325,  0.0311,  0.0102,  0.0064, -0.0347,
         0.0661, -0.0404, -0.0325,  0.0633, -0.0853,  0.0361,  0.1050, -0.0951,
        -0.0785, -0.0577, -0.0008, -0.0062, -0.0572,  0.0805, -0.0614,  0.0463,
        -0.0118, -0.0647,  0.0166, -0.0920,  0.0361,  0.0759, -0.0374, -0.0586,
         0.0564, -0.0603, -0.0275,  0.0218, -0.0710,  0.0987,  0.1195, -0.0241,
         0.0607, -0.0661,  0.0577, -0.0130,  0.1144, -0.0352,  0.0361, -0.1104,
         0.0317, -0.0037, -0.0096,  0.0846,  0.1190,  0.0935, -0.0610, -0.0717,
         0.0879,  0.0571, -0.0261,  0.0566, -0.0293,  0.0024,  0.0731, -0.0592,
         0.0710,  0.0874,  0.0566,  0.0817, -0.0428, -0.0931, -0.0611, -0.0687,
         0.0601, -0.0598,  0.0396,  0.0659,  0.0499, -0.0449,  0.0277,  0.0932,
        -0.0886,  0.0128, -0.0928,  0.0090,  0.0758, -0.0537, -0.0972, -0.1031,
        -0.1069,  0.0432,  0.0914,  0.0611, -0.0548, -0.0325,  0.0563, -0.0027,
        -0.0323, -0.0587,  0.0193,  0.0786,  0.0995, -0.0417, -0.0463, -0.0936,
        -0.0151, -0.0814, -0.0201,  0.0583, -0.0513,  0.0333, -0.1191,  0.0106,
        -0.0193, -0.1440, -0.0535, -0.0756, -0.1278,  0.0920, -0.0116, -0.0950,
         0.1010,  0.1035, -0.1132, -0.0916, -0.0171,  0.0533,  0.0222,  0.0422,
         0.0755, -0.1212, -0.1063,  0.0835,  0.1301, -0.1315, -0.0493, -0.0018,
         0.0797,  0.1114, -0.0985, -0.0785,  0.0337,  0.1185,  0.0219,  0.0737,
         0.0653,  0.0377,  0.0528, -0.0404,  0.0971, -0.0385, -0.0920, -0.0187,
         0.0674,  0.0256,  0.0430,  0.0446,  0.0774, -0.0796, -0.0353,  0.0269,
         0.0339,  0.0228,  0.0207, -0.0558, -0.0363,  0.0062, -0.0233, -0.1172,
         0.0826, -0.0153, -0.0604,  0.0260,  0.0151, -0.0815, -0.0642, -0.0732,
         0.0798,  0.1020,  0.1156, -0.0871,  0.1108,  0.0195, -0.0541,  0.0706,
         0.0002,  0.0252, -0.0365, -0.0466,  0.0758, -0.0650, -0.0544,  0.0047,
        -0.0948, -0.0116, -0.0448, -0.0935,  0.0749, -0.0806,  0.0194,  0.0403,
         0.0212, -0.0580,  0.0335,  0.0055, -0.0430,  0.0027, -0.0795, -0.0166,
        -0.0344,  0.0317,  0.0045,  0.0886, -0.0415,  0.0410, -0.1258, -0.0461,
        -0.1246, -0.0654, -0.0517,  0.0140,  0.0461,  0.0064, -0.0044,  0.0647,
        -0.0220, -0.0008, -0.0900,  0.0813, -0.0446, -0.0084, -0.0824,  0.1180,
         0.0922,  0.0213, -0.0899,  0.0010, -0.0018,  0.1028, -0.0018,  0.0577,
        -0.0407, -0.0674, -0.0018,  0.0450,  0.0904, -0.1257, -0.0157,  0.0219,
        -0.0304,  0.0167, -0.0504, -0.0968,  0.0924, -0.0665,  0.0527,  0.0657,
        -0.1068, -0.0339, -0.0539, -0.0838,  0.0272, -0.0308,  0.0531, -0.0143,
        -0.0758, -0.0286,  0.1255, -0.0531,  0.0303, -0.0891,  0.0032, -0.0476,
         0.0835,  0.1072,  0.0370, -0.0595, -0.0573, -0.0813, -0.0608,  0.0026,
         0.0114, -0.0180, -0.0899,  0.0322,  0.0549,  0.0589, -0.0551,  0.0156,
         0.0350,  0.0624, -0.0874,  0.0744, -0.0548, -0.0134, -0.0238, -0.0037,
         0.0413,  0.0842, -0.0093,  0.0399, -0.0155, -0.0379, -0.1108, -0.0086,
        -0.0035,  0.0946, -0.0679,  0.0125, -0.0952,  0.0806, -0.0869, -0.0174,
        -0.0050, -0.0413, -0.0373,  0.0388, -0.0293,  0.0546,  0.0181,  0.0115,
        -0.1083, -0.0914,  0.0762,  0.0474, -0.0232, -0.0864, -0.0406,  0.0915,
         0.1170,  0.0306, -0.1120,  0.0128,  0.1139, -0.0086, -0.0228,  0.0220,
         0.0308, -0.1023,  0.0630,  0.0645,  0.0042, -0.0597,  0.0199, -0.0332,
         0.0502, -0.0758,  0.0636,  0.0506,  0.0321,  0.0660,  0.1493, -0.0892,
        -0.0521, -0.1116,  0.0530, -0.0805, -0.0112, -0.0613, -0.0298, -0.0420,
        -0.0373, -0.0779,  0.0950, -0.0581, -0.0403, -0.0379,  0.0105,  0.1084,
         0.1059,  0.0117,  0.0020,  0.0582, -0.0104,  0.1151,  0.0565, -0.0608,
         0.0646,  0.0252,  0.0741, -0.0139, -0.0753,  0.0787,  0.0659, -0.0243,
         0.0650, -0.0623, -0.0483, -0.0338,  0.0510, -0.0717, -0.1003, -0.1096],
       device='cuda:0')
Parameter name: to_patch_embedding.3.weight, Parameter value: tensor([1.1043, 1.0344, 1.1202, 1.1065, 1.0666, 1.1025, 1.0952, 1.0975, 1.0674,
        1.1495, 1.1080, 1.1033, 1.0731, 1.0090, 1.1301, 1.0019, 1.0802, 1.1297,
        1.0711, 1.0670, 1.0064, 1.1406, 1.0937, 1.1153, 1.1307, 1.0657, 1.0689,
        1.0567, 1.0715, 1.1401, 1.1557, 1.1669, 1.0657, 1.1166, 1.1097, 1.0877,
        1.1113, 1.1357, 1.0636, 1.0231, 1.0451, 1.0603, 1.2292, 1.0723, 1.0513,
        1.1001, 1.0740, 1.0861, 1.1481, 1.0744, 1.0718, 1.1996, 1.0998, 1.0598,
        1.0590, 1.0888, 1.1095, 1.1968, 1.0877, 1.0488, 1.0879, 1.0855, 1.1265,
        1.0393, 1.1165, 1.0487, 1.0779, 1.1002, 1.1025, 1.0377, 1.0785, 1.1027,
        1.1491, 1.1866, 1.0521, 1.0782, 1.1401, 1.0942, 1.1026, 1.0622, 1.0637,
        1.1210, 1.0730, 1.1476, 1.1067, 1.0878, 1.1055, 1.0868, 1.0923, 1.0982,
        1.0800, 1.1457, 1.1353, 1.0651, 1.0582, 1.1017, 1.0298, 1.0819, 1.1125,
        1.0971, 1.1815, 1.1108, 1.1001, 1.1475, 1.1337, 1.1254, 1.1537, 1.1288,
        1.0437, 1.0955, 1.0935, 1.1049, 1.1032, 1.0940, 1.0773, 1.1275, 1.1469,
        1.0487, 1.0674, 1.0459, 1.0947, 1.0747, 1.1759, 1.0627, 1.1688, 1.0533,
        1.1221, 1.0608, 1.0773, 1.1751, 1.0725, 1.1492, 1.0907, 1.0670, 1.1611,
        1.1429, 1.0812, 1.1248, 1.1053, 1.1052, 1.1046, 1.1037, 1.0232, 1.0976,
        1.1395, 1.0900, 1.1224, 1.0528, 1.0892, 1.0974, 1.0600, 1.0808, 1.1207,
        1.1691, 1.0333, 1.0846, 1.0784, 1.0302, 1.0796, 1.1152, 1.1561, 1.0889,
        1.0750, 1.0998, 1.1505, 1.0730, 1.0781, 1.0450, 1.2230, 1.0826, 1.0600,
        1.0764, 1.0474, 1.2225, 1.0964, 1.1313, 1.0970, 1.0921, 1.1879, 1.0602,
        1.1227, 1.0827, 1.1034, 1.1198, 1.1253, 1.1440, 1.1282, 1.0641, 1.0600,
        1.1201, 1.1014, 1.1330, 1.1335, 1.0820, 1.0882, 1.0543, 1.0810, 1.1462,
        1.0690, 1.1244, 1.1125, 1.1418, 1.1446, 1.0831, 1.1170, 1.0293, 1.1121,
        1.1373, 1.0983, 1.0937, 1.0597, 1.0446, 1.1009, 1.0983, 1.1357, 1.1530,
        1.1760, 1.0779, 1.0777, 1.0900, 1.0653, 1.0749, 1.1044, 1.1449, 1.0798,
        1.0951, 1.0527, 1.1644, 1.0350, 1.1010, 1.0926, 1.1362, 1.1157, 1.0783,
        1.1364, 1.0700, 1.1647, 1.1009, 1.1577, 1.1106, 1.1233, 1.1166, 1.2198,
        1.1235, 1.0446, 1.0883, 1.1421, 1.1306, 1.0501, 1.1321, 1.0962, 1.0411,
        1.0808, 1.0707, 1.2143, 1.1407, 1.0403, 1.0434, 1.1947, 1.1015, 1.0222,
        1.1465, 1.0588, 1.1634, 1.1289, 1.0885, 1.1499, 1.1380, 1.1057, 1.0792,
        1.1066, 1.1423, 1.0474, 1.0834, 1.0659, 1.1109, 1.1358, 1.1514, 1.1280,
        1.1086, 1.1074, 1.0568, 1.0275, 1.0521, 1.0581, 1.0813, 1.0938, 1.1482,
        1.0387, 1.1182, 1.0139, 1.0756, 1.0545, 1.1080, 1.0528, 1.0754, 1.0656,
        1.1295, 1.1277, 1.0295, 1.1221, 1.0927, 1.0824, 1.0885, 1.0259, 1.0858,
        1.1315, 1.1978, 1.1038, 1.1141, 1.0573, 1.0502, 1.0861, 1.0943, 1.1633,
        1.1094, 1.0521, 1.0464, 1.1182, 1.1157, 1.1041, 1.0557, 1.0525, 1.1284,
        1.1083, 1.0817, 1.0614, 1.0598, 1.1189, 1.1167, 1.1885, 1.0205, 1.0571,
        1.0697, 1.0803, 1.0635, 1.0522, 1.0603, 1.1006, 1.0921, 1.0119, 1.0753,
        1.0704, 1.0427, 1.0256, 1.0808, 1.1047, 1.0755, 1.0653, 1.0941, 1.1142,
        1.0983, 1.1576, 1.0920, 1.0927, 1.0934, 1.0502, 1.0874, 1.1220, 1.0905,
        1.1539, 1.1456, 1.1838, 1.1868, 1.0947, 1.1043, 1.1207, 1.0675, 1.1214,
        1.1250, 1.0709, 1.1061, 1.1414, 1.0566, 1.0494, 1.1144, 1.0874, 1.1280,
        1.0904, 1.0906, 1.0923, 1.0944, 1.0983, 1.1294, 1.1193, 1.1162, 1.0853,
        1.1216, 1.0898, 1.0934, 1.0633, 1.1186, 1.0530, 1.1629, 1.0865, 1.0713,
        1.1307, 1.0844, 1.0875, 1.0979, 0.9834, 1.2364, 1.0409, 1.0390, 1.1022,
        0.9990, 1.0434, 1.1169, 1.1007, 1.0605, 1.1438, 1.1181, 1.0973, 1.0956,
        1.0711, 1.1254, 1.1904, 1.0912, 1.1174, 1.1136, 1.1498, 1.0629, 1.1142,
        1.0926, 1.1070, 1.0466, 1.0844, 1.0523, 1.1394, 1.0951, 1.0791, 1.1173,
        1.0487, 1.0711, 1.1879, 1.1077, 1.0441, 1.0686, 1.1652, 1.0645, 1.0833,
        1.1116, 1.0630, 1.1084, 1.1127, 1.1105, 1.0822, 1.0504, 1.0582, 1.0717,
        1.0713, 1.0865, 1.1635, 1.0933, 1.0393, 1.1016, 1.1718, 1.0316, 1.1126,
        1.1693, 1.0932, 1.1796, 1.1207, 1.0937, 1.1161, 1.1330, 1.1112, 1.0574,
        1.1429, 1.2087, 1.1442, 1.1313, 1.0994, 1.1313, 1.1413, 1.0875, 1.0960,
        1.0971, 1.0103, 1.0832, 1.0848, 1.2509, 1.0894, 1.1450, 1.0314, 1.0809,
        1.1583, 1.0897, 1.0870, 1.0473, 1.1415, 1.1650, 1.0662, 1.0868, 1.1015,
        1.1196, 1.0774, 1.1165, 1.0355, 1.0537, 1.1341, 1.0559, 1.1294, 1.0581,
        1.1077, 1.0913, 1.0517, 1.0759, 1.0714, 1.0116, 1.0782, 1.0112],
       device='cuda:0')
Parameter name: to_patch_embedding.3.bias, Parameter value: tensor([-1.1993e-02, -2.4910e-02,  2.2755e-04, -8.9093e-03,  7.9310e-03,
         4.2978e-03,  2.0250e-02,  1.9994e-02,  4.5203e-03, -8.1971e-03,
        -1.3558e-02,  1.4376e-03,  3.3449e-03, -1.3774e-02, -2.2563e-02,
        -9.7855e-03,  9.7719e-03,  5.9367e-03,  1.2401e-02,  1.7518e-02,
         1.2598e-02,  3.7748e-02,  2.2100e-02, -6.9161e-03,  2.8264e-04,
        -3.0466e-02, -7.5671e-03,  8.0499e-04, -1.1408e-02, -1.6490e-02,
         1.8915e-02, -5.1468e-03,  4.5315e-04,  4.3854e-02, -1.4708e-02,
        -2.5836e-02,  3.7189e-02,  2.8846e-03,  1.5762e-02, -9.5180e-03,
         8.9299e-03,  8.8879e-03, -6.6516e-03, -1.3376e-02, -1.9253e-02,
         1.3738e-02,  2.8000e-02, -2.7234e-02, -8.2037e-03, -2.3464e-02,
        -3.0759e-02, -6.1254e-03,  8.8935e-03, -1.3925e-02, -2.1144e-02,
         2.0478e-02, -6.0455e-03, -5.9393e-04, -2.4095e-02,  1.7388e-02,
         8.1648e-03,  9.1345e-03,  1.4048e-03, -1.2660e-03, -2.0244e-03,
         2.0104e-02, -1.6163e-02, -4.0021e-03, -1.9466e-03, -2.6712e-02,
        -6.6098e-03, -1.8004e-02, -5.5924e-03, -1.5723e-02, -8.8657e-03,
         2.6711e-02,  1.1779e-02, -2.1950e-03, -6.2967e-04, -1.0692e-02,
        -1.8861e-02,  3.9787e-02,  2.7951e-03,  1.0322e-02, -7.7527e-03,
         5.3085e-04,  7.6368e-03, -3.4916e-02, -8.1757e-03,  1.7126e-02,
         9.4601e-03, -1.4020e-02, -3.1918e-02,  2.5670e-02,  2.4637e-02,
         1.0825e-02,  4.2349e-03, -2.1639e-02,  1.6145e-02,  1.0059e-02,
        -9.9987e-03,  2.0641e-02, -1.5021e-02, -1.0655e-02, -3.1457e-02,
        -1.0873e-02, -1.3670e-04,  6.6062e-03,  1.0389e-02,  4.6954e-03,
         1.7942e-03, -5.1472e-03, -4.1034e-04, -2.2627e-02, -1.1118e-02,
         8.6678e-03, -6.2665e-02,  1.6614e-02, -7.1588e-03, -9.5514e-03,
        -3.0313e-02, -3.0156e-03,  2.9647e-02,  2.2529e-02, -2.3158e-02,
        -4.9353e-02,  2.4117e-02,  3.1241e-02, -1.1703e-02, -9.6366e-04,
         1.3862e-02,  1.8076e-02, -1.4576e-02,  1.5062e-02, -4.2104e-02,
         2.0275e-02, -2.2001e-02, -1.2030e-03,  2.1114e-02, -6.2971e-03,
         5.0562e-03,  2.0652e-02,  9.5037e-03,  5.4519e-03, -2.1068e-02,
         4.3097e-02,  2.0058e-02,  1.7861e-02,  1.5085e-02, -3.0015e-02,
         1.1575e-02,  5.2800e-03, -2.4699e-02, -1.1427e-03,  1.6454e-02,
         1.2164e-02,  1.2976e-03, -2.1214e-02, -2.3003e-02, -4.7722e-03,
        -1.6115e-02,  1.4687e-02, -1.1868e-02,  4.6077e-03,  9.2911e-03,
        -6.6595e-03, -1.4330e-02, -7.3007e-04, -1.7925e-02, -3.2380e-03,
        -8.6989e-03, -1.3905e-02, -8.5187e-04,  4.8242e-03, -6.0502e-03,
         1.1499e-02, -1.5280e-02, -1.3407e-02,  1.4804e-02,  4.2628e-03,
         5.0485e-03,  4.1280e-02,  9.7981e-04, -1.0362e-02, -1.1337e-02,
         5.5917e-03,  1.2334e-02,  2.0557e-02,  4.1051e-02,  2.0188e-02,
        -5.2553e-03,  3.1334e-02, -9.0514e-03,  1.8826e-02, -1.7746e-02,
        -2.9507e-02, -2.4604e-02,  6.2299e-03,  4.1903e-03, -1.3128e-02,
         1.1963e-02,  4.5563e-03,  1.6150e-02, -8.8323e-03, -3.4694e-03,
        -1.0599e-02,  1.3588e-02,  6.1966e-03, -4.9571e-03,  1.5322e-02,
        -1.2681e-02,  7.7159e-06,  1.8562e-02,  1.3545e-02, -3.4183e-03,
        -9.9052e-03,  1.4571e-03, -3.1068e-02, -2.2789e-02, -3.1549e-02,
        -1.0268e-03,  1.6830e-02, -6.4209e-03, -4.7478e-02, -1.0201e-02,
        -1.9787e-02, -7.8183e-03,  4.3437e-03, -1.3924e-03, -1.9582e-02,
        -4.0371e-03, -2.1336e-02,  2.4261e-03, -4.4061e-02,  1.1475e-02,
        -1.7277e-04,  7.2270e-03, -1.7919e-02, -1.3153e-02,  2.1881e-02,
        -5.2395e-03, -2.0996e-02,  5.0892e-03, -7.2079e-04, -1.2467e-04,
         2.3259e-02,  1.0763e-02, -2.3510e-02, -2.0814e-03, -2.4809e-02,
         4.1365e-03, -1.6223e-02,  2.2467e-02,  2.7460e-03, -2.1669e-02,
        -2.5451e-02, -2.8927e-03, -7.4709e-04, -4.4298e-03, -1.3608e-02,
        -2.0343e-02, -9.4534e-03, -1.0933e-02, -5.0681e-02, -1.0605e-02,
        -2.4801e-02, -4.9702e-03,  3.4965e-02,  1.6421e-02, -7.2176e-04,
        -2.2336e-04, -3.4264e-02,  3.7207e-03, -4.4856e-02, -1.3101e-02,
         5.2971e-03,  4.0973e-03,  1.1580e-02,  5.5593e-03,  1.4339e-02,
        -3.7517e-02, -9.9310e-03, -2.4223e-02,  6.0171e-03,  2.4974e-02,
        -7.7562e-03,  2.9363e-03,  1.3939e-02,  5.3751e-03,  8.0123e-03,
         1.0897e-02, -2.1570e-02,  6.0067e-03,  1.3503e-02,  1.6536e-04,
         7.8440e-03, -8.8483e-03, -3.0395e-03,  2.0609e-02,  6.7591e-03,
         1.3514e-02,  6.6066e-03,  4.9108e-03,  1.3312e-02,  3.2631e-02,
         1.0820e-02, -1.2458e-02,  2.4814e-02, -2.4291e-02,  3.4700e-02,
        -1.4160e-02, -6.9692e-03,  2.2582e-02,  5.9856e-04,  1.8005e-02,
        -1.0638e-02, -1.1725e-02,  5.0158e-03,  2.1963e-02, -2.3077e-02,
         9.5811e-04,  9.3737e-03,  2.8706e-03, -2.7219e-03,  9.7220e-03,
         6.0070e-03,  3.8397e-03, -4.1364e-03,  5.3986e-03,  5.0600e-03,
        -3.0334e-02, -1.4977e-04,  1.5442e-02,  8.3561e-03, -1.2230e-03,
         2.0887e-02,  3.8144e-04,  1.1061e-02,  4.4260e-03, -3.4251e-03,
        -9.4012e-03, -2.7482e-02,  5.6038e-04, -6.0000e-03, -1.8100e-02,
        -7.5296e-03,  8.1117e-03, -1.7127e-02,  2.2227e-02, -1.2167e-02,
        -2.7771e-02, -7.0633e-03, -1.1909e-02, -2.9286e-03,  7.7263e-03,
         2.3661e-02,  1.6548e-02, -4.2414e-03,  9.3679e-03, -3.5008e-03,
         5.9315e-03,  3.6049e-03, -1.1611e-02, -1.7253e-03,  1.0749e-02,
        -1.4213e-02, -3.9907e-03, -1.1869e-02, -1.5773e-02,  1.0835e-02,
         1.6073e-02,  1.2511e-02, -6.4084e-03,  1.8016e-02,  1.4916e-02,
        -3.5642e-03, -1.6689e-02, -6.1992e-04,  2.0083e-02, -1.3509e-03,
         4.1903e-04,  1.8757e-02, -3.4139e-02, -1.0362e-02, -2.2202e-02,
        -2.5720e-03, -1.0868e-02,  2.3135e-02,  1.2580e-02, -4.5106e-03,
        -1.1174e-02, -7.1458e-03,  3.8115e-03, -1.1454e-02,  3.3480e-04,
         1.0643e-02, -6.2079e-03,  1.4415e-02, -4.8065e-03,  5.3870e-02,
        -2.0463e-02, -7.2200e-03, -2.3543e-03,  3.1210e-02, -2.9619e-02,
        -1.4755e-02,  3.6226e-03,  3.6603e-02,  2.6215e-02, -5.3807e-03,
         6.3515e-03, -3.7042e-03,  6.7462e-03, -7.0701e-03,  1.3934e-03,
         2.6470e-03, -1.7896e-02,  1.7112e-03, -1.4393e-02,  1.8435e-02,
        -1.9472e-03,  3.4656e-03, -1.1127e-02, -5.5457e-03,  3.0472e-02,
        -3.9633e-02,  1.4718e-02,  8.5584e-03,  3.4829e-02, -1.9459e-02,
         6.7741e-03,  2.8712e-02,  2.8425e-02,  1.8667e-02, -8.7541e-03,
         4.2047e-03,  2.4689e-02,  1.8417e-02, -3.6792e-03,  6.2218e-03,
         4.1284e-03,  1.8279e-02,  1.3227e-03,  3.4735e-02, -2.7159e-02,
         6.6282e-03,  9.2942e-03, -1.6595e-02,  1.5027e-02,  9.0535e-03,
         2.8550e-03,  2.5241e-03,  1.7918e-02, -1.0433e-02,  1.5827e-02,
         1.1628e-02,  1.9179e-03,  2.4680e-03,  1.1898e-02, -1.9227e-02,
         9.3425e-03,  1.3673e-02, -2.6120e-04,  2.4629e-02, -2.0457e-02,
         1.2759e-02, -7.3189e-03, -1.5261e-02,  2.0176e-02, -2.3677e-02,
         2.9616e-02,  1.9045e-02, -6.2636e-03, -3.2784e-02,  1.2537e-02,
        -4.5456e-03, -4.2578e-03, -1.4005e-02, -9.2879e-04, -5.2136e-03,
         1.3057e-02, -1.1490e-02, -8.4252e-03, -1.5696e-03, -1.1731e-02,
        -3.5798e-03,  1.4970e-02, -1.5744e-02,  7.5308e-03, -3.1077e-02,
         6.3724e-03, -1.9718e-02,  6.1970e-02,  3.6699e-02, -3.3738e-02,
         5.1956e-03, -2.2075e-02,  1.1847e-02, -2.2388e-02,  5.7340e-03,
         2.3000e-02, -1.2699e-02, -7.9892e-03, -1.2568e-02, -1.3921e-02,
         1.3060e-02,  1.4045e-02, -5.4316e-03, -9.0625e-03,  7.9210e-03,
        -2.5441e-02, -4.9516e-03], device='cuda:0')
Parameter name: transformer.norm.weight, Parameter value: tensor([0.9815, 1.0008, 1.0695, 1.0160, 1.0427, 1.0066, 1.0521, 0.9758, 1.0249,
        0.9841, 1.0083, 1.0121, 1.0186, 1.0135, 0.9996, 1.0304, 0.9597, 0.9893,
        1.0512, 0.9896, 1.0007, 1.0332, 1.0051, 1.0273, 1.0410, 1.0297, 1.0167,
        1.0193, 0.9920, 1.0114, 1.0199, 1.0033, 1.0095, 0.9871, 1.0146, 1.0163,
        1.0115, 0.9969, 0.9778, 1.0079, 0.9848, 1.0421, 0.9957, 0.9848, 1.0125,
        0.9849, 1.0570, 1.0127, 1.0022, 0.9658, 0.9591, 1.0183, 1.0116, 0.9941,
        1.0112, 1.0316, 0.9925, 1.0275, 1.0031, 1.0666, 1.0034, 1.0238, 1.0446,
        1.0008, 0.9932, 0.9879, 0.9917, 0.9935, 1.0407, 1.0153, 1.0017, 1.0157,
        1.0312, 0.9883, 1.0503, 1.0358, 1.0328, 1.0670, 1.0264, 1.0528, 0.9871,
        1.0071, 1.0227, 1.0158, 0.9663, 0.9908, 1.0006, 0.9911, 1.0041, 0.9759,
        1.0257, 0.9967, 0.9942, 0.9836, 1.0142, 1.0170, 1.0065, 0.9953, 1.0478,
        1.0041, 1.0028, 1.0407, 1.0564, 1.0170, 1.0382, 1.0375, 1.0435, 1.0203,
        1.0488, 1.0170, 0.9991, 1.0102, 1.0293, 1.0085, 1.0070, 1.0271, 0.9452,
        0.9974, 1.0349, 1.0213, 0.9799, 1.0234, 0.9603, 1.0450, 1.0074, 1.0390,
        0.9886, 1.0366, 1.0075, 0.9835, 0.9704, 1.0002, 1.0247, 1.0275, 1.0314,
        1.0133, 1.0003, 1.0237, 0.9683, 0.9974, 1.0116, 1.0139, 1.0120, 0.9914,
        0.9570, 1.0239, 1.0084, 1.0116, 1.0410, 1.0187, 1.0026, 1.0321, 0.9920,
        1.0085, 1.0253, 0.9983, 0.9921, 1.0393, 1.0048, 0.9871, 0.9865, 1.0212,
        0.9847, 1.0171, 1.0504, 1.0062, 1.0088, 1.0236, 1.0049, 1.0319, 1.0245,
        1.0587, 1.0281, 1.0050, 0.9876, 0.9853, 0.9933, 1.0014, 1.0407, 1.0306,
        0.9875, 1.0297, 1.0471, 0.9490, 0.9563, 0.9941, 1.0288, 1.0257, 1.0263,
        1.0217, 1.0341, 1.0237, 1.0229, 1.0436, 1.0020, 1.0253, 1.0625, 1.0484,
        1.0229, 0.9996, 1.0130, 1.0204, 1.0316, 1.0259, 1.0004, 1.0012, 1.0275,
        1.0319, 0.9740, 1.0260, 0.9850, 1.0347, 1.0110, 0.9771, 0.9817, 1.0029,
        0.9924, 0.9722, 1.0584, 1.0108, 1.0468, 1.0298, 0.9840, 0.9789, 1.0243,
        0.9624, 1.0038, 1.0103, 1.0199, 1.0190, 0.9991, 1.0287, 1.0228, 1.0312,
        0.9822, 0.9951, 1.0544, 1.0254, 1.0354, 0.9981, 1.0502, 1.0130, 1.0143,
        1.0374, 1.0554, 1.0249, 1.0175, 1.0177, 1.0111, 0.9938, 1.0202, 1.0009,
        1.0059, 0.9592, 1.0120, 1.0241, 1.0004, 1.0047, 1.0277, 1.0094, 1.0090,
        1.0054, 1.0247, 0.9828, 0.9684, 0.9962, 1.0006, 1.0017, 0.9843, 1.0085,
        1.0118, 0.9767, 1.0185, 0.9905, 0.9759, 0.9970, 1.0179, 1.0049, 1.1106,
        0.9544, 0.9917, 1.0047, 0.9972, 1.0105, 0.9886, 1.0518, 1.0056, 1.0101,
        0.9981, 1.0016, 0.9997, 1.0277, 1.0211, 0.9995, 0.9991, 1.0020, 1.0128,
        1.0233, 1.0065, 1.0162, 1.0064, 1.0111, 1.0122, 0.9612, 0.9920, 1.0038,
        0.9810, 0.9907, 0.9963, 1.0049, 1.0716, 1.0095, 0.9977, 1.0271, 1.0008,
        1.0147, 1.0028, 1.0229, 1.0119, 1.0136, 1.0067, 0.9964, 0.9984, 1.0337,
        0.9947, 0.9991, 0.9948, 1.0076, 1.0732, 1.0616, 0.9862, 1.0198, 1.0004,
        0.9969, 1.0172, 1.0026, 0.9838, 1.0031, 1.0334, 1.0173, 0.9994, 1.0125,
        1.0315, 1.0251, 1.0074, 1.0191, 1.0034, 1.0425, 1.0232, 1.0380, 1.0176,
        0.9999, 1.0425, 0.9964, 0.9959, 1.0168, 1.0316, 1.0033, 0.9926, 1.0485,
        1.0118, 1.0017, 1.0131, 0.9966, 1.0250, 0.9809, 0.9658, 1.0143, 1.0106,
        0.9803, 0.9784, 0.9983, 1.0287, 0.9785, 1.0444, 1.0142, 1.0119, 1.0037,
        1.0199, 0.9983, 1.0103, 1.0036, 1.0116, 1.0120, 1.0087, 0.9797, 1.0328,
        1.0116, 1.0320, 0.9942, 1.0115, 0.9953, 1.0138, 0.9988, 1.0098, 1.0104,
        1.0012, 1.0472, 1.0347, 0.9633, 1.0458, 0.9907, 1.0071, 0.9984, 0.9850,
        1.0122, 1.0087, 1.0025, 0.9994, 1.0351, 1.0438, 1.0288, 1.0234, 1.0192,
        1.0379, 1.0507, 1.0089, 0.9747, 1.0001, 1.0195, 0.9744, 0.9903, 1.0117,
        1.0174, 1.0068, 1.0243, 0.9761, 1.0304, 0.9821, 1.0281, 1.0143, 1.0277,
        0.9918, 0.9886, 0.9720, 1.0044, 1.0081, 1.0075, 1.0168, 0.9508, 1.0257,
        1.0072, 0.9904, 1.0061, 0.9762, 1.0989, 1.0302, 1.0164, 1.0489, 1.0212,
        1.0623, 1.0008, 1.0311, 1.0028, 1.0224, 0.9973, 1.0130, 1.0276, 1.0104,
        0.9919, 1.0323, 0.9883, 1.0112, 1.0159, 1.0239, 1.0049, 1.0514, 1.0362,
        1.0349, 0.9897, 0.9347, 1.0215, 1.0885, 1.0089, 1.0186, 1.0114, 1.0201,
        1.0224, 1.0056, 1.0190, 1.0659, 1.0051, 0.9875, 1.0191, 1.0085, 1.0454,
        1.0002, 0.9894, 0.9910, 1.0301, 1.0291, 0.9884, 1.0149, 1.0067, 1.0240,
        1.0330, 0.9989, 0.9926, 1.0359, 0.9984, 1.0417, 0.9759, 0.9882, 1.0399,
        1.0084, 1.0088, 1.0257, 0.9993, 1.0263, 1.0706, 0.9939, 0.9933],
       device='cuda:0')
Parameter name: transformer.norm.bias, Parameter value: tensor([-5.5177e-03,  1.6202e-02, -1.4917e-02,  6.0370e-03,  1.4868e-02,
         6.7186e-03,  4.2774e-03, -1.1635e-02,  1.2572e-02, -3.4005e-03,
        -5.7132e-03, -1.7286e-03, -6.7177e-03, -1.1468e-02,  2.5088e-03,
        -7.6338e-03,  3.0316e-03, -3.4194e-03, -2.2532e-03, -2.0443e-03,
        -1.0766e-02, -5.9384e-03, -1.4861e-02,  5.9466e-03,  5.3575e-03,
         6.9711e-03, -3.4090e-03, -9.9984e-04,  9.2474e-03,  9.0678e-03,
         1.2080e-02,  3.9543e-03,  7.0021e-03, -1.3977e-02,  2.6654e-03,
         3.5727e-03, -1.7300e-03, -5.5326e-04, -1.0164e-02, -1.8508e-03,
        -3.8157e-03,  4.2517e-03, -5.8521e-03,  9.5230e-03,  1.2010e-02,
         1.9917e-03, -9.9874e-03, -2.4737e-04, -8.1271e-04, -1.3119e-02,
         1.3478e-03, -1.5938e-03,  8.4109e-03, -3.5362e-03, -9.0913e-03,
         5.7804e-03,  1.7776e-03,  1.1744e-02,  3.0898e-03, -7.3096e-03,
        -1.0095e-02, -1.4940e-02,  3.6169e-04, -1.4273e-02, -1.4840e-02,
        -1.5597e-02,  1.2029e-02,  5.9036e-03,  1.9763e-04,  5.2191e-03,
        -5.5119e-03,  5.4773e-03, -8.7784e-03,  1.0889e-02, -2.7904e-03,
        -1.7280e-03,  1.1409e-02,  1.1217e-02,  1.0348e-02, -1.1918e-02,
         1.5585e-03,  7.5048e-03, -3.3513e-03, -1.0865e-02,  2.8043e-04,
        -8.2752e-04,  2.0935e-03,  5.6946e-03, -9.6995e-03, -1.0720e-02,
         8.9858e-04,  1.1594e-02,  4.4924e-03,  5.1372e-03, -1.1718e-02,
         7.9547e-03, -1.2368e-03, -2.9930e-03, -5.5896e-03, -1.3566e-02,
         1.6444e-02, -6.8209e-03,  9.6399e-03,  4.5334e-03, -6.3833e-03,
        -1.3938e-02,  1.0704e-02, -7.0546e-03,  1.1755e-02, -3.0036e-03,
        -9.0136e-03,  1.3037e-03, -2.8025e-03,  1.0137e-02, -8.6958e-04,
        -3.1268e-03,  4.6898e-02, -2.8743e-04, -1.8016e-02, -5.4569e-03,
         7.3652e-03, -4.5004e-03, -2.2060e-02, -9.5429e-03,  3.1472e-03,
         5.3591e-03, -1.3364e-02,  5.2502e-03, -7.0556e-03,  3.4056e-03,
        -8.7756e-03,  1.0475e-02,  7.5682e-03, -4.2326e-04,  1.3872e-03,
         7.8764e-03,  1.1334e-02, -3.6040e-03, -5.1145e-03, -4.8353e-03,
        -3.5617e-04,  1.0211e-02,  5.1362e-03, -8.6794e-03,  2.4377e-02,
        -9.9102e-03, -9.6570e-03, -3.7672e-03,  6.0739e-03,  2.4179e-03,
        -2.2872e-03, -1.3536e-02,  1.4363e-02,  7.5428e-03, -4.7692e-03,
         1.0015e-04, -8.9461e-03, -1.7725e-02,  5.8859e-03, -3.4038e-04,
        -1.6135e-02, -2.9943e-03,  2.0344e-03, -6.2850e-03, -8.7973e-03,
         2.3039e-03, -1.0933e-04,  1.8944e-03, -5.7014e-03, -1.1352e-02,
        -1.1610e-03, -8.1789e-03,  5.0769e-03,  8.2001e-03,  1.0547e-02,
         5.0588e-03,  9.9373e-03,  1.8625e-03,  2.6204e-03, -9.0647e-03,
        -1.2761e-02, -5.5607e-03,  6.3510e-03,  2.1126e-03, -1.2055e-03,
         3.9069e-03,  8.7907e-03,  5.0318e-04,  4.6388e-03, -3.3181e-04,
        -4.9240e-03, -3.2747e-03,  1.1724e-02, -8.1386e-03,  8.4829e-03,
        -7.1517e-03, -1.1004e-02, -1.1796e-02,  2.2653e-03, -1.4157e-02,
         3.9204e-03, -1.1861e-02, -8.8031e-03, -3.4750e-03, -1.8508e-02,
         2.7489e-03, -5.4356e-03,  1.4712e-02, -2.4853e-03,  2.5745e-03,
        -6.3148e-03,  6.1131e-03, -6.9103e-03,  1.1903e-04, -1.0224e-02,
        -7.2130e-03, -7.4831e-03,  2.3516e-02, -6.8073e-03,  6.7428e-03,
        -1.5459e-02, -1.9912e-03,  7.9762e-03,  2.8759e-02, -6.9670e-03,
         2.5343e-03, -6.4567e-03, -9.2798e-04, -1.1479e-03,  1.0265e-03,
         2.6500e-03, -3.7652e-03,  8.2100e-03, -3.1855e-04, -4.1963e-03,
         1.4617e-02,  7.3614e-03,  1.7473e-03,  1.2506e-02, -7.1220e-03,
         1.0704e-02, -2.6607e-03,  1.0245e-03,  1.1737e-02,  1.5309e-02,
        -9.0623e-03,  5.0581e-03, -1.0587e-03, -2.3843e-03,  1.0511e-02,
        -2.0278e-03,  1.5154e-02,  3.1732e-03, -9.8051e-05,  5.0024e-03,
         5.1779e-03, -8.1715e-03,  1.4684e-03,  2.4118e-03,  6.6611e-03,
        -9.0128e-04, -2.1283e-02,  7.6814e-03,  1.6339e-02,  5.2563e-03,
        -3.1604e-04,  9.0295e-03, -9.4170e-03, -1.0947e-02, -3.0589e-04,
         4.4423e-03, -1.0725e-03, -5.3772e-03,  1.5707e-02, -8.5086e-03,
        -1.3676e-02, -1.3126e-02,  1.3156e-02, -1.4666e-02, -4.7744e-02,
         3.6087e-03,  2.5065e-02,  1.3475e-02, -6.5231e-03, -1.9473e-03,
         6.5250e-03, -1.1014e-02, -7.4589e-03, -6.2877e-03,  1.6001e-03,
        -1.4470e-02,  4.3081e-03, -5.4371e-04, -1.2656e-02, -6.6707e-04,
         1.3464e-02, -1.1911e-02, -7.2785e-03, -1.2252e-02, -3.7576e-04,
        -6.9514e-03, -1.7987e-03, -6.6774e-03,  3.6234e-03, -1.5902e-02,
         3.0793e-03,  2.3503e-04, -6.9758e-03,  9.3442e-03,  1.3649e-03,
         1.5630e-02,  6.1610e-03, -8.9251e-03,  5.2680e-03,  7.3844e-03,
         1.6261e-02,  1.3075e-02, -1.3622e-02,  1.1415e-03, -1.5536e-02,
        -6.2074e-03, -2.8060e-03,  7.6728e-03, -2.4060e-03,  3.2860e-04,
         7.5814e-03, -6.8834e-03,  3.9164e-03, -2.0984e-02, -4.8178e-03,
         3.8428e-03, -1.5131e-02,  8.4923e-03, -8.2583e-03,  8.7023e-03,
        -3.0060e-03,  9.5771e-04,  1.7201e-03, -3.5958e-03,  1.5963e-02,
         2.7056e-03,  4.9423e-03, -1.2239e-02, -7.9680e-03, -2.8819e-03,
        -4.7378e-03,  6.6943e-03,  1.3724e-03, -2.2244e-03,  1.2703e-02,
         1.0046e-02,  1.0681e-03,  1.1675e-02, -2.5217e-03, -2.4089e-03,
        -2.4993e-03, -1.0165e-02, -1.2393e-02, -1.6081e-02, -2.1363e-02,
        -2.9381e-03,  7.1047e-03,  5.9059e-03,  2.0810e-03, -6.9475e-03,
         1.0986e-02, -1.0174e-02, -4.9890e-03,  3.8761e-03, -2.7046e-03,
        -1.2048e-02, -9.9877e-03,  3.6368e-03,  3.7292e-03,  8.7706e-03,
        -3.5236e-03,  7.8773e-03,  5.7869e-03, -2.1380e-03,  2.6668e-03,
        -5.6526e-03, -9.8640e-03,  8.4519e-04, -4.8773e-03,  4.0437e-03,
         8.6205e-04, -7.1543e-04, -2.5699e-03, -2.1865e-03, -5.6056e-04,
         1.5355e-02,  1.5753e-02, -9.1697e-03,  1.6645e-02,  4.9950e-03,
        -9.1518e-03,  9.8248e-03, -1.1608e-02,  1.7886e-02, -3.0756e-02,
         9.0057e-03,  7.2027e-04, -6.6100e-03, -5.6621e-03,  9.5615e-03,
        -1.3432e-02,  1.3439e-02, -1.5195e-03, -2.1273e-03,  5.5220e-03,
         9.6262e-03, -1.0718e-02, -1.1946e-02,  5.3487e-03, -1.1496e-02,
         1.4540e-02,  9.8695e-04,  7.3536e-04,  7.6890e-03, -3.2175e-03,
         1.1184e-03,  1.0043e-02,  5.2999e-03,  6.9745e-03, -5.1637e-03,
         9.8424e-03, -2.3128e-03,  8.2602e-04,  5.0859e-04,  9.3883e-03,
        -4.7601e-03,  5.0783e-04,  2.1765e-03, -1.1832e-03,  7.4418e-03,
         5.5640e-03, -1.0387e-02, -5.3742e-03,  1.7540e-03,  4.8635e-03,
        -2.2792e-03, -1.3915e-02,  1.1773e-03, -4.6416e-03,  1.4453e-02,
         1.1568e-02, -4.0050e-03, -5.5663e-03,  6.4316e-03,  8.8672e-04,
         1.7465e-02, -8.0547e-03,  6.3826e-03,  5.3776e-03, -1.7749e-02,
         2.7707e-03,  1.2353e-02,  4.8302e-03, -6.4761e-03,  2.0295e-03,
        -7.4366e-03, -1.9194e-02, -1.9916e-03,  8.1245e-03,  2.9666e-03,
        -7.8518e-03, -7.8403e-03,  1.0408e-02, -5.9948e-03,  8.0360e-04,
        -6.0834e-02, -1.4749e-03,  1.2091e-02, -3.0789e-03,  2.9572e-03,
        -1.1945e-02, -1.2328e-02,  1.0849e-02,  7.4108e-03,  4.5373e-04,
        -1.8076e-02,  1.1256e-02, -6.1173e-04,  2.7764e-03,  7.6630e-03,
         1.2578e-02, -5.2458e-03, -1.6443e-03, -2.2194e-02,  2.1420e-03,
         6.8312e-03,  7.5877e-03, -3.8363e-03,  6.0206e-03,  2.5770e-03,
         1.1393e-02,  3.1292e-03, -1.8979e-03, -8.9473e-03, -2.2839e-02,
        -1.8877e-03,  1.3257e-02, -9.8255e-03,  2.6440e-03,  1.9011e-03,
        -3.2771e-03,  1.0298e-02,  1.1802e-02, -1.3135e-02, -1.6529e-02,
         7.5931e-03, -1.1069e-02], device='cuda:0')
Parameter name: transformer.layers.0.0.norm.weight, Parameter value: tensor([0.8679, 0.7887, 0.7446, 0.7496, 0.8180, 0.7787, 0.8925, 0.7542, 0.7996,
        0.8358, 0.7981, 0.8107, 0.7328, 0.8342, 0.7505, 0.8323, 0.7566, 0.8172,
        0.8898, 0.7805, 0.7362, 0.8325, 0.7327, 0.7953, 0.8444, 0.8832, 0.7702,
        0.8016, 0.8133, 0.8360, 0.8152, 0.8089, 0.8833, 0.7772, 0.8117, 0.8146,
        0.7800, 0.7980, 0.7263, 0.8186, 0.7865, 0.8530, 0.7692, 0.7975, 0.7911,
        0.8936, 0.8159, 0.7949, 0.7960, 0.8001, 0.8234, 0.8282, 0.7890, 0.8058,
        0.8049, 0.7670, 0.8163, 0.7920, 0.7605, 0.8177, 0.8178, 0.7790, 0.7869,
        0.8070, 0.8021, 0.8404, 0.8288, 0.7961, 0.8370, 0.8015, 0.8234, 0.7809,
        0.8045, 0.7627, 0.8380, 0.7910, 0.8274, 0.8065, 0.8223, 0.7574, 0.7678,
        0.7716, 0.7662, 0.7672, 0.8475, 0.7818, 0.8942, 0.8141, 0.7733, 0.7948,
        0.7801, 0.6995, 0.8300, 0.7950, 0.8477, 0.8217, 0.8102, 0.8198, 0.8408,
        0.7789, 0.7982, 0.7886, 0.7677, 0.8078, 0.8051, 0.7813, 0.8308, 0.8100,
        0.8578, 0.7802, 0.7401, 0.8016, 0.7905, 0.8093, 0.8156, 0.7555, 0.6790,
        0.8074, 0.7758, 0.8303, 0.8093, 0.7633, 0.7683, 0.7952, 0.7863, 0.7967,
        0.7199, 0.7943, 0.7824, 0.8671, 0.8221, 0.7535, 0.7990, 0.7821, 0.7362,
        0.8527, 0.8354, 0.8022, 0.8042, 0.8152, 0.8399, 0.7823, 0.8393, 0.7105,
        0.7475, 0.8134, 0.7919, 0.8786, 0.8253, 0.7999, 0.8251, 0.7926, 0.7226,
        0.8106, 0.7881, 0.8089, 0.6876, 0.8529, 0.8698, 0.8256, 0.7448, 0.7866,
        0.7765, 0.7711, 0.8382, 0.8055, 0.8159, 0.8591, 0.8162, 0.8602, 0.7248,
        0.7722, 0.8207, 0.8246, 0.7941, 0.8272, 0.8499, 0.7597, 0.8415, 0.7999,
        0.7694, 0.8187, 0.7968, 0.7698, 0.8419, 0.7901, 0.8375, 0.8265, 0.8000,
        0.8287, 0.7948, 0.8326, 0.8204, 0.8059, 0.7936, 0.7948, 0.8447, 0.7844,
        0.8087, 0.7436, 0.8094, 0.8184, 0.8820, 0.8164, 0.7274, 0.7885, 0.7952,
        0.8265, 0.8081, 0.7733, 0.7989, 0.7359, 0.7833, 0.7897, 0.7987, 0.8180,
        0.8570, 0.7984, 0.7709, 0.8310, 0.8169, 0.7877, 0.7924, 0.7914, 0.7734,
        0.7756, 0.7915, 0.8234, 0.9141, 0.8451, 0.7740, 0.7613, 0.7986, 0.7680,
        0.8270, 0.7969, 0.7980, 0.8164, 0.8386, 0.8036, 0.7885, 0.8293, 0.7837,
        0.7679, 0.8021, 0.7868, 0.8333, 0.8158, 0.8567, 0.7894, 0.7563, 0.7616,
        0.7907, 0.8087, 0.8433, 0.7589, 0.8656, 0.8104, 0.8513, 0.8602, 0.7779,
        0.7949, 0.8511, 0.7591, 0.7805, 0.7465, 0.7647, 0.8135, 0.7819, 0.8348,
        0.8481, 0.8333, 0.7804, 0.7088, 0.7884, 0.7530, 0.7991, 0.8236, 0.7637,
        0.6591, 0.7899, 0.8036, 0.7689, 0.8052, 0.7971, 0.8315, 0.7780, 0.7591,
        0.7950, 0.7863, 0.7708, 0.8269, 0.7947, 0.7807, 0.8227, 0.7497, 0.8155,
        0.7952, 0.7996, 0.8400, 0.8140, 0.8275, 0.8156, 0.7557, 0.7502, 0.8421,
        0.7761, 0.7784, 0.7880, 0.7512, 0.8280, 0.8414, 0.8579, 0.7812, 0.7347,
        0.8503, 0.8260, 0.8176, 0.8112, 0.8430, 0.7891, 0.7762, 0.7373, 0.8965,
        0.7376, 0.7800, 0.7337, 0.7562, 0.7859, 0.8637, 0.8120, 0.7584, 0.7593,
        0.8440, 0.7989, 0.7779, 0.8442, 0.7872, 0.8594, 0.7423, 0.8322, 0.7932,
        0.8074, 0.8417, 0.8420, 0.8261, 0.8555, 0.7669, 0.8101, 0.8116, 0.8063,
        0.7663, 0.8381, 0.8135, 0.7736, 0.8165, 0.8288, 0.7678, 0.7877, 0.7835,
        0.8056, 0.8213, 0.7841, 0.7830, 0.8503, 0.7578, 0.8212, 0.7390, 0.8027,
        0.8461, 0.7839, 0.7894, 0.7996, 0.7778, 0.7976, 0.7036, 0.7540, 0.8216,
        0.8400, 0.7755, 0.7726, 0.7593, 0.7463, 0.8127, 0.7404, 0.8204, 0.8216,
        0.7670, 0.7491, 0.8399, 0.8032, 0.7531, 0.8034, 0.7694, 0.8124, 0.8226,
        0.8168, 0.8347, 0.7596, 0.7924, 0.7693, 0.8217, 0.8013, 0.8352, 0.8102,
        0.7876, 0.7805, 0.7356, 0.7435, 0.8487, 0.9009, 0.8087, 0.8645, 0.8476,
        0.7500, 0.8021, 0.8054, 0.8379, 0.7958, 0.7625, 0.8236, 0.8469, 0.8066,
        0.7956, 0.8334, 0.8336, 0.7996, 0.8304, 0.7999, 0.8164, 0.8725, 0.7493,
        0.8515, 0.8227, 0.8074, 0.8110, 0.7512, 0.7496, 0.8386, 0.8365, 0.7551,
        0.7904, 0.7673, 0.8254, 0.8408, 0.8298, 0.7597, 0.7757, 0.8125, 0.8139,
        0.8336, 0.7740, 0.7777, 0.8133, 0.7684, 0.8591, 0.7788, 0.8279, 0.7801,
        0.7397, 0.8003, 0.7412, 0.7889, 0.7858, 0.7696, 0.7780, 0.8259, 0.7701,
        0.8133, 0.8246, 0.7184, 0.7468, 0.7610, 0.7870, 0.7554, 0.8247, 0.8277,
        0.7635, 0.8669, 0.7900, 0.7767, 0.8437, 0.8627, 0.8358, 0.7943, 0.8272,
        0.8185, 0.7354, 0.7809, 0.8179, 0.7748, 0.8343, 0.7294, 0.7685, 0.8364,
        0.7792, 0.7709, 0.7839, 0.7868, 0.7228, 0.7666, 0.7939, 0.8099, 0.8057,
        0.7936, 0.7913, 0.9041, 0.7811, 0.7904, 0.8323, 0.8329, 0.8641],
       device='cuda:0')
Parameter name: transformer.layers.0.0.norm.bias, Parameter value: tensor([-0.0106,  0.0258,  0.1054,  0.0920,  0.0408, -0.0485,  0.0608,  0.0377,
         0.0316, -0.0059, -0.0575,  0.0137, -0.0988,  0.0259,  0.0098, -0.1157,
        -0.0415, -0.0674,  0.0594,  0.0589, -0.0116,  0.0094,  0.0703, -0.0986,
         0.0293, -0.0327,  0.0609, -0.0544,  0.0317, -0.0274,  0.0049,  0.0549,
        -0.0036, -0.0451, -0.0022, -0.0172, -0.0733,  0.0349, -0.0302,  0.0391,
        -0.0272,  0.0388, -0.0159,  0.0256, -0.0018,  0.0177,  0.0595,  0.0368,
         0.0273, -0.0366, -0.0333,  0.0106, -0.0166, -0.0700,  0.0090, -0.1125,
        -0.0498,  0.0537,  0.0240,  0.0237,  0.0095, -0.0025,  0.0107, -0.0162,
        -0.0549, -0.0493,  0.0177,  0.0056,  0.0230, -0.0102, -0.0690,  0.0417,
        -0.0448,  0.0549,  0.0519,  0.0117,  0.0425, -0.0492, -0.0272, -0.0345,
        -0.0053,  0.0555,  0.0427,  0.0689, -0.0315, -0.0546, -0.0044,  0.0523,
        -0.0831,  0.0051, -0.0235,  0.0606, -0.0163,  0.0281,  0.0070, -0.0062,
         0.0213, -0.0213,  0.0290,  0.0128,  0.0309, -0.0428,  0.0283,  0.0269,
        -0.0206, -0.0288,  0.0124,  0.0340,  0.0236, -0.0050, -0.0764,  0.0011,
        -0.0430,  0.0604, -0.0067, -0.0554,  0.0632,  0.0892, -0.0410, -0.0746,
         0.0328, -0.0683, -0.0086,  0.0024, -0.0275, -0.0037, -0.0135, -0.0321,
        -0.0894,  0.0239,  0.0285, -0.0756, -0.0196, -0.0564, -0.0634,  0.0391,
         0.0058,  0.0605,  0.0038, -0.0325,  0.0407,  0.0314, -0.0407, -0.0027,
         0.0122,  0.0293, -0.0410,  0.0274, -0.0207, -0.0217, -0.0053,  0.0460,
         0.0184,  0.0526,  0.0393,  0.0122,  0.0602, -0.0433, -0.0723,  0.0060,
        -0.0550, -0.0108, -0.0331,  0.0245, -0.0272,  0.0538, -0.0369,  0.0388,
        -0.0025, -0.0037,  0.0763, -0.1000,  0.0028, -0.0337,  0.0448,  0.0253,
        -0.0298,  0.0052, -0.0350, -0.0657, -0.0284, -0.0137, -0.0115, -0.0309,
        -0.0532, -0.0669, -0.0044, -0.0561,  0.0531,  0.0498,  0.0032,  0.0149,
        -0.0826,  0.0401,  0.0478,  0.0296, -0.0442,  0.0335, -0.0125, -0.1001,
         0.0589,  0.0061,  0.0419,  0.0242, -0.0673,  0.0548,  0.0453,  0.0359,
         0.0315,  0.0306, -0.0225, -0.0957,  0.0398, -0.0744, -0.0019, -0.0067,
         0.0630,  0.0864, -0.0195, -0.0329, -0.0522,  0.0470,  0.0796,  0.1010,
        -0.0106,  0.0390,  0.0078,  0.0379, -0.0377,  0.0042,  0.0538,  0.0939,
         0.0121,  0.0619,  0.0517,  0.0973,  0.0583,  0.0086,  0.0499,  0.0545,
        -0.0406, -0.0721,  0.0397,  0.0436,  0.0187, -0.0581, -0.0226, -0.0023,
        -0.0672,  0.0339,  0.0350, -0.0452, -0.0774,  0.0309,  0.0505, -0.0065,
        -0.0218, -0.0232, -0.0062,  0.0144, -0.0469, -0.0507,  0.0061, -0.0512,
         0.0090, -0.0437, -0.0089,  0.0315, -0.0344, -0.0101,  0.0567,  0.0077,
        -0.0185,  0.0013, -0.0239, -0.0519, -0.0542,  0.0399,  0.0565, -0.0478,
         0.0022,  0.0227, -0.0057,  0.0326,  0.0475, -0.0302, -0.0300,  0.0413,
        -0.0119,  0.0087,  0.0140, -0.0445,  0.0214,  0.0265,  0.0492,  0.0717,
        -0.0728, -0.0215, -0.0683,  0.0671, -0.0833, -0.0130,  0.0516, -0.0469,
        -0.0084, -0.0039,  0.0501,  0.0369, -0.0094, -0.0175, -0.0311, -0.0002,
         0.0153, -0.0080,  0.0740,  0.0556,  0.0088,  0.0314, -0.0464, -0.0391,
         0.0368, -0.0205, -0.0594,  0.0140,  0.0555, -0.0389,  0.0710,  0.0028,
        -0.0045, -0.0369,  0.0091, -0.1023,  0.0430,  0.0329,  0.0528, -0.0116,
         0.0073,  0.0453,  0.0395, -0.0221, -0.0419,  0.0033, -0.0576, -0.0282,
         0.0063, -0.0173,  0.0410, -0.1166, -0.0117,  0.0606, -0.0337,  0.0361,
        -0.0133, -0.0136,  0.0559,  0.0029, -0.0408, -0.1114,  0.0048, -0.0575,
        -0.0089,  0.0299,  0.0359, -0.0094, -0.0333,  0.0893, -0.0161, -0.0283,
         0.0166, -0.0171, -0.0260,  0.0587, -0.0924,  0.0888, -0.0238, -0.0710,
         0.0392,  0.0117, -0.0033,  0.0783, -0.0171, -0.0025, -0.0389,  0.0227,
         0.0500,  0.0076, -0.0400,  0.0250, -0.0417,  0.0498,  0.0180,  0.0555,
        -0.0291,  0.0119, -0.0169,  0.0051, -0.0053,  0.0363,  0.0214, -0.0100,
        -0.0343,  0.0064,  0.0685,  0.0107,  0.0369, -0.0165,  0.0692,  0.0512,
         0.0132, -0.0331,  0.0354, -0.0139,  0.0401,  0.0155,  0.0349, -0.0331,
        -0.0475, -0.0121,  0.0010, -0.0375, -0.0010, -0.0122,  0.0545, -0.0084,
        -0.0107, -0.0331,  0.0261,  0.0431,  0.0982, -0.0415,  0.0096, -0.0356,
        -0.0192,  0.0577, -0.0440, -0.0348, -0.0229, -0.0551,  0.0225,  0.0260,
         0.0758,  0.0360, -0.0451, -0.0287, -0.0067,  0.0395,  0.0354, -0.0192,
        -0.0400, -0.0511,  0.0921, -0.0585, -0.0422,  0.0125, -0.0390, -0.0442,
         0.0070,  0.0368, -0.0244, -0.0830, -0.0053,  0.0162, -0.0437,  0.0321,
         0.0100,  0.0616,  0.0027, -0.0485, -0.0447, -0.0741, -0.1007,  0.0119,
         0.0136,  0.0153, -0.0869, -0.0300, -0.0445,  0.0537,  0.0018,  0.0604,
         0.0196,  0.0198, -0.0329,  0.0248,  0.0097, -0.0218, -0.0454, -0.0371,
        -0.0970, -0.0268, -0.0901, -0.0169,  0.0048,  0.0444, -0.0017,  0.1114,
        -0.0374,  0.0367, -0.0369, -0.0691,  0.0654, -0.0286, -0.0621, -0.0074,
        -0.0267, -0.0308,  0.0430, -0.0035, -0.0671, -0.0143,  0.0699,  0.0322],
       device='cuda:0')
Parameter name: transformer.layers.0.0.to_qkv.weight, Parameter value: tensor([[-0.0217, -0.0316, -0.0242,  ..., -0.0176, -0.0456, -0.0138],
        [-0.0018, -0.0272, -0.0227,  ...,  0.0265, -0.0195, -0.0346],
        [-0.0374,  0.0087, -0.0403,  ..., -0.0140, -0.0292, -0.0087],
        ...,
        [ 0.0203, -0.0817, -0.0046,  ..., -0.0145,  0.0089, -0.0204],
        [ 0.0060,  0.0131,  0.0299,  ...,  0.0034, -0.0393, -0.0422],
        [-0.0241, -0.0232, -0.0163,  ..., -0.0270, -0.0207, -0.0506]],
       device='cuda:0')
Parameter name: transformer.layers.0.0.to_out.0.weight, Parameter value: tensor([[ 0.0412, -0.0248, -0.0153,  ...,  0.0437,  0.0142,  0.0366],
        [ 0.0399, -0.0471, -0.0393,  ...,  0.0034, -0.0021, -0.0260],
        [ 0.0226,  0.0119, -0.0320,  ..., -0.0043,  0.0130, -0.0056],
        ...,
        [ 0.0390,  0.0508,  0.0650,  ...,  0.0281, -0.0398,  0.0151],
        [ 0.0434, -0.0181, -0.0509,  ..., -0.0049,  0.0191,  0.0004],
        [ 0.0063, -0.0347, -0.0172,  ..., -0.0571, -0.0177,  0.0635]],
       device='cuda:0')
Parameter name: transformer.layers.0.0.to_out.0.bias, Parameter value: tensor([-4.7923e-02,  5.9284e-03,  8.2463e-04, -1.3132e-02, -4.4430e-02,
         3.9039e-02, -5.2528e-02,  8.6438e-04, -2.3293e-02,  3.7119e-03,
         5.4237e-03,  2.4902e-02,  4.4767e-02, -5.2033e-02, -4.5419e-02,
        -8.3225e-03, -1.1584e-02, -1.2523e-02, -2.9390e-02, -6.7503e-03,
         2.7885e-02,  2.1715e-03,  3.2848e-03, -1.2420e-02, -2.4940e-03,
        -3.8903e-02, -4.9574e-02,  7.9849e-03, -2.7435e-02,  5.1309e-02,
        -4.6435e-02, -5.1789e-02,  2.7734e-02,  6.4991e-02, -4.3687e-02,
        -5.8710e-02,  7.2886e-02,  3.2124e-03, -1.8304e-02, -2.4827e-02,
        -2.4227e-02, -8.1400e-03, -4.9191e-02,  9.5052e-03,  2.0056e-02,
        -6.3168e-03,  1.3571e-02,  5.9307e-03, -3.8188e-02,  1.8482e-02,
        -1.6287e-02,  2.1495e-02,  2.0995e-02, -4.5662e-03, -8.7300e-03,
         7.0338e-02, -1.2176e-02, -4.5608e-02,  1.0179e-02, -2.6815e-03,
         1.7368e-02, -3.8429e-02,  3.2225e-02,  3.2278e-02, -1.3123e-02,
         4.0604e-02,  2.2387e-02, -4.0143e-02,  6.0791e-03,  1.2396e-02,
        -6.9685e-03,  8.2404e-03,  2.6839e-03, -3.4166e-02, -7.9645e-02,
         3.3502e-02, -3.4737e-02, -1.0344e-02, -9.4992e-03,  1.6782e-02,
         1.5328e-02,  1.1435e-02,  4.2842e-03, -2.5194e-02, -5.0772e-03,
         6.3089e-02,  3.0979e-02, -1.5658e-02,  4.0364e-02, -3.5494e-02,
         4.7667e-02, -4.5409e-02, -2.1752e-02, -3.0447e-02,  4.6191e-03,
         1.7775e-02,  1.2781e-02,  7.2436e-03, -9.2927e-03,  3.2094e-02,
         2.3324e-03,  2.5731e-02, -1.5284e-02,  1.4014e-02, -4.4962e-02,
        -3.6085e-02, -4.9624e-02,  4.4835e-03,  9.9908e-03, -6.4822e-03,
         7.0238e-02, -3.1288e-02,  6.1248e-02, -3.1179e-02,  2.8513e-02,
         5.8485e-03, -2.0838e-01, -3.6672e-02,  2.5141e-02,  5.4586e-02,
        -5.0728e-02,  4.4245e-02,  7.9436e-03, -4.8107e-03,  5.0357e-02,
        -4.3482e-02,  5.6881e-02,  4.3785e-02,  7.1042e-03, -1.7276e-02,
         1.7097e-03,  2.0584e-02, -1.0060e-02,  3.2425e-02, -7.8269e-03,
        -5.8838e-03, -6.2506e-02, -5.4458e-03,  4.3575e-02, -8.2539e-03,
         2.5247e-02,  1.6796e-02, -8.2711e-04, -6.4203e-03, -1.6228e-01,
         2.2003e-02,  1.2704e-02, -1.6999e-02,  5.3687e-02, -4.8043e-02,
         6.2877e-02, -1.4228e-02, -2.1554e-02, -6.5717e-02,  9.6876e-03,
        -4.8527e-02,  1.9704e-02,  1.1380e-03,  2.9053e-02, -1.3062e-02,
         6.5376e-03,  3.4753e-02, -1.3748e-02, -2.8320e-02,  6.9897e-02,
         4.7484e-03,  3.6760e-02, -4.8423e-02,  1.5860e-02, -4.3330e-02,
         1.7971e-02,  2.3544e-04,  1.1961e-03,  7.2889e-02, -2.6072e-04,
         2.3448e-03, -1.0146e-02,  2.0793e-02,  6.3734e-02, -7.3062e-04,
         2.0374e-02,  6.6511e-03,  1.4925e-02,  2.2873e-03, -4.8291e-03,
         5.3871e-02,  3.7034e-02, -5.2887e-03,  1.0493e-02, -1.8331e-02,
         1.1349e-03,  4.0951e-03, -1.3843e-03, -4.5867e-03, -5.9109e-02,
        -2.5799e-02,  5.5706e-02,  7.8633e-03, -1.5216e-02,  2.0226e-02,
         2.2712e-02, -2.0857e-03, -7.6185e-03, -2.0354e-02, -4.0466e-03,
         1.3157e-02,  9.6297e-03,  1.1677e-03,  3.3304e-02,  2.5211e-02,
        -2.5656e-02,  2.6808e-02,  1.7397e-02,  4.2591e-02,  1.1757e-03,
        -2.0077e-02, -1.6460e-02,  5.4551e-03, -2.2659e-02, -5.3226e-02,
         1.3522e-02,  3.4182e-02, -3.9596e-02, -5.4744e-02, -2.2943e-02,
        -3.1731e-02, -3.8928e-02, -5.2830e-02,  4.7182e-02, -1.9418e-02,
        -4.3193e-02, -5.6835e-02,  3.4264e-02, -6.2232e-02, -4.7041e-02,
        -8.8191e-02, -6.9129e-02,  9.5523e-03,  1.7350e-02,  1.8183e-02,
         3.8530e-02,  4.1140e-02, -2.6465e-02,  2.3038e-02, -3.7256e-02,
         4.7429e-02, -1.4251e-02, -2.5305e-02,  5.6375e-02, -7.0165e-02,
        -7.5258e-03, -8.5741e-03,  8.8819e-02,  1.5855e-02, -2.3664e-02,
        -7.7601e-03, -5.7561e-02,  1.8925e-02, -9.5552e-04, -9.8189e-03,
        -8.8074e-03, -2.9632e-02, -5.0111e-02,  2.8875e-02, -7.3857e-03,
         6.4095e-03, -2.5878e-02,  4.6223e-02,  4.9899e-02,  3.6112e-02,
         9.2425e-03, -1.4220e-02,  1.1792e-02, -5.8122e-02,  3.0485e-02,
         3.9364e-02,  6.6047e-02,  2.2893e-03,  1.6350e-02,  4.7990e-02,
        -6.4846e-04, -2.1644e-02,  5.0288e-03,  1.6570e-02, -3.8509e-02,
        -4.4127e-02,  4.2929e-02,  5.4817e-03,  2.4347e-02, -4.3355e-02,
         3.3270e-02,  3.2288e-02, -2.1085e-02, -6.1849e-03,  7.9079e-03,
         1.0082e-02,  3.2134e-02,  6.6975e-02,  3.5521e-02, -5.5787e-02,
         5.5535e-02,  7.8730e-03, -5.0478e-02,  3.7664e-02,  7.1164e-03,
         3.9375e-02,  1.2185e-02, -3.7541e-02, -3.3216e-02,  1.1825e-02,
        -2.6572e-02,  1.2155e-02,  3.8259e-02, -3.2748e-02, -3.4298e-02,
        -8.1768e-02,  2.1108e-03, -6.4008e-02,  3.3615e-02,  2.5737e-02,
        -4.6044e-02,  5.4739e-02,  9.4115e-03,  8.6001e-03, -1.3853e-02,
         4.0408e-02, -4.2914e-02,  3.9892e-03,  2.1253e-02,  1.6237e-02,
        -1.1914e-02, -1.0282e-02,  2.2147e-02, -3.1206e-03,  3.0100e-03,
         5.2996e-02,  2.3632e-02, -5.6297e-03, -1.7868e-02,  2.8934e-02,
         1.2089e-02, -4.8338e-02,  3.7038e-02,  3.5913e-02, -1.4006e-02,
        -1.7439e-02, -3.4937e-02,  4.9555e-02,  5.4883e-03, -5.7434e-02,
         4.6225e-04, -4.6034e-02, -1.7004e-04, -2.8447e-02, -3.4116e-02,
         2.8337e-02,  5.8417e-02,  5.5193e-02,  3.9833e-02,  4.7966e-02,
        -1.0999e-02, -2.6011e-02, -3.5316e-02,  9.7442e-03,  1.2171e-02,
        -3.7299e-02,  2.0970e-04,  6.0194e-02,  1.9618e-02,  6.0957e-02,
         6.4159e-02, -2.2157e-02,  6.9181e-02,  4.8842e-03,  4.9817e-02,
         3.0450e-02, -1.4958e-02, -3.5069e-02,  3.1345e-02,  2.5933e-03,
        -9.4708e-03,  2.3650e-02,  7.9307e-03,  4.2227e-03, -3.0505e-02,
        -1.5028e-02,  4.3128e-02,  4.1810e-03,  3.8017e-03,  4.0873e-03,
         2.9412e-02, -3.1466e-02,  3.4446e-02,  2.6279e-02,  1.9597e-03,
        -6.2868e-03, -4.9440e-03, -2.0096e-02, -2.2880e-02,  8.0952e-02,
        -1.6672e-02,  3.6182e-02, -2.9481e-03, -1.9708e-02, -2.0361e-02,
        -6.8072e-03, -2.8438e-02, -1.9742e-02, -2.5894e-03,  4.8749e-02,
         2.1563e-04, -1.9495e-02, -2.9964e-02, -3.3842e-02, -4.4399e-02,
         4.4566e-02, -2.7469e-02,  3.7012e-02, -3.3984e-02,  5.7454e-02,
         1.9154e-02,  2.8327e-02, -2.3178e-02, -1.1814e-03, -2.7660e-02,
         3.5837e-02, -3.2017e-02, -4.2206e-02,  2.7228e-02,  8.5067e-03,
        -1.9040e-04,  6.5165e-02,  4.2213e-02,  2.0549e-02, -5.3334e-02,
         7.2765e-02,  1.9735e-02,  3.9890e-02,  1.4831e-02,  1.4316e-02,
        -2.0279e-02, -3.5912e-03,  4.8044e-02,  6.5491e-02, -2.1611e-03,
        -2.9179e-02,  1.0784e-02, -2.5201e-02,  3.5095e-02, -6.9129e-04,
         2.3269e-02,  2.3808e-02,  5.1159e-02,  1.8951e-02,  1.8207e-02,
        -1.4738e-03, -4.1918e-02,  5.3752e-03,  5.6621e-03,  4.4423e-02,
        -2.6746e-02,  7.9243e-03, -3.1358e-02,  4.1689e-02,  2.2570e-02,
        -3.2212e-02,  1.3096e-02, -2.8976e-02,  7.2719e-02,  4.2157e-02,
         1.6328e-01,  2.0380e-02,  2.7633e-02, -3.7962e-03,  6.1599e-02,
        -4.5725e-03, -5.3956e-03,  1.3427e-02, -1.7749e-02, -2.8148e-02,
         2.7021e-03, -3.3677e-02, -1.4105e-02, -4.1030e-02, -3.2753e-02,
        -2.0032e-02,  6.2034e-02,  1.0930e-02,  2.7665e-02,  9.4239e-03,
         1.9050e-02,  1.8417e-02,  4.5108e-02,  4.0079e-02, -5.5872e-02,
        -2.7552e-02,  7.9063e-03, -2.6825e-02, -2.1106e-02,  4.0484e-02,
        -2.4994e-02,  4.9536e-02,  2.9876e-02,  7.4355e-03,  5.6762e-02,
         2.0294e-02, -3.7931e-02, -2.1970e-02, -4.4510e-03, -3.6076e-02,
        -4.0418e-02, -3.6781e-03], device='cuda:0')
Parameter name: transformer.layers.0.1.net.0.weight, Parameter value: tensor([1.0252, 0.9847, 1.0434, 1.0535, 0.9973, 0.9687, 1.0633, 0.9778, 0.9379,
        1.0102, 0.9571, 0.9839, 1.0110, 0.9457, 0.9288, 1.0366, 0.9471, 1.0079,
        1.0037, 0.9684, 0.9330, 1.0149, 0.9746, 1.0140, 1.0445, 1.0262, 0.9299,
        0.9572, 0.9021, 1.0347, 0.9494, 0.9800, 0.9910, 0.9673, 1.0433, 0.9707,
        0.9485, 0.9355, 1.0039, 0.9709, 0.9557, 0.9715, 1.0457, 0.9562, 0.9422,
        1.0099, 0.9169, 0.9902, 0.9460, 0.9743, 0.9116, 1.0955, 1.0302, 0.9851,
        0.9689, 1.0554, 0.9522, 0.9972, 0.9675, 0.9172, 1.0136, 0.9582, 0.9701,
        0.9737, 0.9949, 1.0327, 1.0109, 0.9698, 1.0244, 0.9427, 1.0288, 0.9857,
        1.0656, 1.0451, 1.0768, 1.0143, 1.0302, 0.9341, 0.9703, 0.9787, 0.9772,
        1.0300, 0.9549, 0.9959, 1.0524, 0.9993, 1.0526, 1.0667, 0.9998, 0.9900,
        0.9890, 0.9849, 1.0128, 0.9686, 0.9905, 0.9874, 0.8966, 0.9861, 1.0213,
        1.0092, 1.0031, 1.0410, 0.9923, 0.9261, 0.9901, 0.9568, 1.0477, 1.0100,
        1.0087, 0.9439, 0.9511, 1.0180, 1.0234, 0.9890, 0.9427, 0.9750, 0.9376,
        0.9703, 0.9333, 1.0457, 0.9990, 0.8875, 0.9532, 0.9639, 1.0524, 0.9084,
        0.9015, 0.9943, 0.9942, 1.0540, 0.9630, 0.9405, 0.9883, 0.9392, 1.0466,
        1.0620, 1.0253, 1.0183, 0.9818, 0.9971, 0.9995, 0.9564, 0.9587, 0.9452,
        0.9068, 1.0081, 1.0272, 0.9914, 1.0056, 0.9160, 1.0128, 0.9887, 0.9505,
        1.0145, 0.9191, 1.0229, 0.9740, 1.0001, 0.9939, 0.9982, 0.9927, 0.9572,
        1.0077, 0.9827, 1.0468, 1.0170, 1.0235, 0.9672, 1.0456, 1.0268, 0.9493,
        0.9752, 1.0179, 1.0641, 0.9753, 1.0291, 1.0208, 0.9347, 1.0732, 0.9700,
        0.9823, 0.9798, 0.9628, 0.9696, 1.0473, 1.1062, 1.0574, 1.0321, 0.9982,
        1.0239, 0.9845, 1.0589, 1.0354, 0.9318, 1.0070, 0.9677, 0.9946, 1.0126,
        0.9663, 1.0021, 0.9867, 0.9919, 1.0974, 0.9782, 0.9591, 0.9475, 1.0243,
        1.0171, 0.9549, 0.9806, 0.9839, 1.0002, 0.9675, 0.9775, 0.9943, 0.9845,
        1.0334, 0.9678, 0.9527, 0.9636, 0.9572, 0.9816, 1.0522, 1.0068, 0.9419,
        0.9783, 0.9662, 1.0052, 0.9721, 0.9789, 0.9505, 1.0067, 0.9967, 0.9778,
        1.0545, 1.0247, 1.0307, 0.9747, 0.9872, 0.9321, 1.0002, 1.0804, 1.0448,
        1.0178, 0.9985, 0.9745, 0.9946, 0.9962, 0.9907, 1.0015, 0.9986, 0.9263,
        1.0017, 1.0410, 1.1290, 0.9971, 0.9817, 0.9315, 1.0305, 1.0302, 0.9101,
        1.0235, 1.0506, 0.9515, 0.9865, 0.9864, 1.0140, 0.9976, 0.9908, 0.9987,
        1.0283, 0.9768, 0.9334, 0.9295, 0.9667, 1.0113, 1.0162, 1.0355, 1.0347,
        0.9584, 1.0106, 0.9492, 0.9253, 0.9631, 0.9852, 1.0142, 0.9668, 0.9334,
        0.9428, 1.0563, 0.9653, 0.9654, 0.8780, 0.9881, 0.9731, 0.9886, 0.9667,
        0.9899, 0.9926, 0.9853, 1.0481, 0.9622, 0.9619, 1.0233, 0.9064, 0.9531,
        1.0318, 1.0322, 0.9964, 1.0052, 0.9097, 0.9591, 0.9398, 0.9762, 0.9943,
        1.0541, 0.9385, 0.9925, 1.0739, 1.0195, 0.9465, 0.9597, 0.9446, 0.9621,
        0.9800, 0.9397, 0.9338, 0.9249, 0.9243, 0.9987, 0.9998, 0.9328, 1.0025,
        1.0187, 1.0106, 0.9890, 0.9555, 0.9871, 1.0529, 1.0026, 1.0079, 0.9790,
        0.9574, 1.0105, 0.9902, 1.0164, 1.0410, 0.9496, 1.0405, 0.9904, 1.0178,
        0.9776, 0.9956, 1.0014, 0.9713, 0.9341, 1.0296, 1.0233, 0.9673, 0.9682,
        1.0033, 1.0736, 1.0360, 1.0504, 1.0328, 1.0572, 0.9994, 0.9278, 0.9877,
        1.0829, 0.9380, 1.0369, 1.1551, 0.9771, 0.9796, 0.9708, 0.9649, 0.9869,
        1.0124, 0.9641, 0.9875, 1.0050, 0.9788, 0.9901, 0.9080, 1.0302, 1.0145,
        0.9903, 0.9140, 1.0276, 0.9729, 0.9875, 0.9229, 0.9763, 0.9684, 1.0484,
        1.0086, 1.0424, 0.9025, 1.0130, 0.8891, 1.1084, 0.9942, 0.9801, 1.0071,
        0.9244, 0.9571, 0.9637, 0.9499, 1.0087, 1.0989, 0.9752, 1.0269, 0.9820,
        0.9763, 0.9653, 1.0398, 0.9623, 1.0023, 0.9674, 0.9524, 1.0241, 1.0071,
        1.0004, 1.0114, 0.9574, 0.9464, 1.0086, 1.0013, 0.9864, 1.0002, 0.9762,
        0.9678, 0.9711, 1.0112, 1.0459, 0.9901, 0.9699, 0.9651, 0.9419, 1.0286,
        0.9973, 0.9552, 1.0391, 0.9830, 1.0430, 0.9895, 0.9600, 0.9017, 0.9450,
        0.9946, 0.9581, 1.0441, 0.9765, 0.9882, 1.0405, 0.9207, 0.9505, 1.0727,
        1.0245, 1.0150, 1.0010, 0.9627, 0.9967, 0.9351, 0.9914, 0.9722, 0.9700,
        1.0274, 1.0746, 0.9375, 1.0103, 0.9414, 1.0006, 1.0461, 0.8867, 0.9892,
        0.9450, 0.9782, 1.0230, 0.9315, 1.0169, 1.0283, 1.0321, 0.9575, 0.9654,
        1.0628, 0.9649, 1.0175, 0.9712, 1.0402, 1.0001, 0.9289, 0.9393, 0.9909,
        1.0050, 0.9687, 0.9811, 0.9159, 0.9734, 1.0805, 1.0029, 0.9560, 0.9152,
        0.9605, 0.9769, 1.0036, 0.9103, 1.0152, 0.9582, 1.0108, 0.9878],
       device='cuda:0')
Parameter name: transformer.layers.0.1.net.0.bias, Parameter value: tensor([-5.0267e-02, -4.7563e-02, -9.3734e-02, -9.3774e-02, -8.0827e-02,
         1.0785e-01, -7.7295e-02,  1.6872e-03, -8.9641e-02,  2.5517e-02,
         2.5105e-02,  4.8510e-02,  1.0664e-01, -5.4979e-02, -8.7501e-02,
         1.0208e-01,  6.2955e-02,  7.6140e-02, -9.2128e-02, -2.5200e-02,
         1.1785e-02,  8.3613e-02, -7.5695e-02,  6.8130e-02, -7.8531e-02,
        -4.2297e-02, -4.1240e-02,  5.2928e-02, -4.7874e-02,  1.6014e-02,
        -2.8986e-02, -9.5544e-02, -3.1228e-03,  1.0875e-01, -3.5626e-02,
        -3.2705e-02,  1.3606e-01, -3.2281e-02,  6.7054e-02, -9.1030e-02,
         6.2343e-02, -1.7140e-02, -5.3827e-02, -5.2001e-02, -7.8550e-03,
         6.3705e-03, -1.1606e-02, -1.3922e-01, -2.5281e-02,  6.4922e-02,
        -9.5340e-03,  2.9987e-02,  2.3746e-02,  4.8923e-02, -8.9918e-02,
         1.6862e-01,  7.2337e-02, -1.1900e-01, -9.2965e-02,  8.7949e-02,
         1.6072e-02,  1.9869e-03,  1.8986e-03,  6.1012e-03,  1.4698e-02,
         1.7108e-01,  1.9802e-03, -5.1094e-02, -9.3866e-02, -8.8265e-03,
         8.3992e-02, -1.0604e-01,  6.2681e-02, -1.1721e-01, -1.3224e-01,
         1.0299e-01, -1.3523e-01,  6.2499e-02,  1.1755e-01,  2.7905e-03,
        -2.4348e-02, -4.8076e-02, -8.1595e-03, -8.5647e-02,  3.0245e-02,
         7.1507e-02, -2.2944e-03, -1.0942e-01,  1.6453e-01,  6.8452e-03,
         7.5258e-02, -4.1046e-02, -6.4075e-02,  2.6737e-02, -3.6043e-02,
         5.3657e-02, -7.0763e-03, -2.4902e-02, -4.5527e-02,  1.3899e-02,
        -6.5124e-02,  1.1081e-01, -7.8784e-02, -7.9393e-02, -1.9610e-02,
         6.6954e-02, -7.7806e-02, -1.8561e-02,  1.0042e-02,  8.4823e-04,
         1.1759e-01, -4.2590e-02,  8.2483e-02, -7.3301e-02,  5.3715e-03,
         6.1617e-02, -4.9942e-02, -1.1246e-01,  3.8702e-02,  1.1626e-01,
        -7.3934e-02,  1.4545e-01,  2.2167e-02,  4.3263e-02,  4.5292e-02,
        -4.6424e-02,  9.8768e-02,  1.3591e-01,  6.2758e-02, -3.1178e-02,
        -1.6114e-02,  9.6308e-02, -6.5869e-02,  9.1961e-02, -1.6206e-02,
         2.3502e-02, -7.4502e-02, -1.0750e-01,  3.5331e-02,  5.1472e-02,
        -2.0944e-02, -6.9960e-03,  6.8087e-02, -3.3418e-02, -3.7953e-02,
         6.2434e-02,  1.2431e-01,  4.1309e-02,  5.7468e-02, -5.3701e-02,
         4.6417e-02, -3.0659e-02, -4.9593e-02, -8.2272e-02, -3.1360e-02,
        -8.5402e-02, -5.1342e-02,  4.4718e-02,  5.3581e-02, -6.3244e-02,
        -3.7856e-02,  3.3837e-02,  6.2560e-02, -1.3611e-02,  1.1352e-01,
        -7.0927e-02,  8.9772e-02,  1.4458e-02, -3.8523e-02, -1.6688e-02,
        -8.2337e-02,  5.0348e-02,  3.8911e-02,  1.0322e-01, -6.5023e-02,
         2.6577e-02,  8.1497e-02, -1.5449e-02,  4.1519e-02,  9.7378e-02,
         2.2929e-02,  5.6348e-02, -8.3804e-03, -3.3007e-02,  1.7599e-02,
         1.3139e-01,  7.8160e-02,  9.4194e-02,  9.2640e-05, -6.3818e-02,
        -4.1592e-02,  2.6370e-02,  1.0081e-01, -1.7753e-03, -7.4638e-02,
        -5.7201e-02,  6.4974e-02, -2.9282e-02, -1.9585e-02,  6.9297e-02,
        -7.8237e-02, -4.5880e-02, -6.9255e-02, -2.7982e-02,  5.8205e-02,
        -7.2140e-02, -3.6867e-02, -5.8913e-02, -4.4179e-02,  7.6711e-02,
         1.6818e-02,  1.0080e-01,  3.8876e-02,  7.3138e-02, -3.8676e-02,
        -3.2442e-02, -4.8539e-02, -1.0454e-01, -2.8401e-02, -2.1060e-02,
         1.1457e-01, -7.9500e-03, -7.1817e-02, -9.2088e-02, -5.5067e-02,
        -1.6060e-01, -3.3709e-02, -3.4513e-02, -1.1334e-02, -4.4969e-02,
        -7.6813e-02, -1.3056e-01, -2.2024e-02, -1.1026e-01, -4.0659e-02,
        -1.5270e-01, -7.1624e-02, -1.7310e-02, -8.3369e-02, -3.5411e-02,
         3.8977e-02,  6.0419e-02, -8.0473e-02, -1.9801e-02, -6.3034e-02,
         4.8160e-02,  4.0883e-02,  2.1315e-02,  6.4500e-02, -1.2941e-01,
        -7.6550e-02,  1.4183e-03,  1.3167e-01, -9.2930e-03, -1.3822e-01,
        -4.8448e-02, -3.7674e-02,  1.3837e-02, -1.2094e-02, -3.4523e-02,
         8.7429e-02,  2.7582e-02, -8.2575e-02,  7.3640e-02, -5.8925e-02,
        -3.8081e-02,  2.4804e-02,  6.2489e-02,  3.2594e-02,  2.1997e-02,
        -1.6641e-01, -5.9883e-02,  2.9899e-02, -6.9515e-02, -1.8206e-02,
         1.0135e-01,  6.5117e-02, -9.8109e-03, -3.8342e-02,  5.6486e-02,
        -6.7742e-02, -1.1161e-02,  1.0586e-02, -5.4281e-02, -1.4536e-02,
        -4.3278e-02,  8.1960e-02, -2.0417e-02,  6.1916e-02, -6.7420e-02,
        -3.3258e-02, -1.0336e-02, -3.0446e-02, -3.5224e-02, -2.8634e-02,
        -6.6134e-02,  1.2580e-01,  8.3747e-02,  1.2717e-01, -8.8395e-02,
         1.4184e-01,  6.1895e-02, -7.8481e-02,  1.4886e-01,  6.1599e-02,
         4.7469e-03, -4.2531e-02, -4.1240e-02,  1.8464e-03,  8.7716e-02,
         1.0639e-02, -2.8412e-02,  5.7248e-02,  3.6117e-02, -8.7985e-03,
        -1.2588e-01, -1.4598e-02, -6.2646e-02,  1.3395e-01,  2.1068e-02,
        -4.1977e-02, -3.3352e-03,  5.9034e-02, -6.4862e-02, -7.7330e-02,
         1.1186e-01, -5.2866e-02,  3.6144e-03,  1.1703e-02,  7.0640e-02,
        -9.9892e-02,  1.2718e-01,  5.3591e-03, -4.8103e-03, -5.5210e-02,
         2.4869e-02,  1.1398e-02, -6.4379e-02, -1.1341e-01,  5.7802e-02,
         4.7337e-02, -5.9581e-02,  2.1644e-02,  2.2949e-02, -4.4044e-02,
         4.4277e-02, -9.5111e-02,  1.0168e-01,  5.6383e-02, -7.5782e-02,
        -4.3772e-02, -1.4457e-02, -1.0628e-02, -4.5113e-02, -8.1860e-02,
         1.2262e-02,  1.4761e-01,  1.1287e-01,  1.0161e-02,  9.9206e-02,
         4.0702e-02, -6.0801e-02,  3.8919e-02, -1.1156e-02,  6.7210e-02,
        -1.3696e-01,  1.3699e-02,  8.0140e-02, -7.0354e-02,  7.9690e-02,
         7.1027e-02, -6.4379e-02,  1.4465e-01, -2.7579e-02,  5.5786e-02,
         1.0973e-01, -4.6975e-02, -2.7571e-03,  5.1411e-02, -1.3508e-01,
        -7.1180e-03,  4.2883e-02,  3.4154e-02, -8.6583e-02, -1.0845e-01,
        -2.1768e-02,  1.2125e-02, -9.9756e-03,  7.4626e-02, -6.0072e-02,
        -6.7865e-02, -2.1831e-02,  9.1071e-02, -4.3484e-02, -4.0968e-02,
         2.3856e-02,  2.6224e-02, -7.4759e-02,  2.8633e-04,  1.0683e-01,
         2.6756e-02,  2.5484e-02, -1.7714e-01,  6.6813e-03, -8.0786e-02,
        -6.6938e-02, -6.0799e-02, -1.9089e-02,  5.7511e-02,  9.5863e-02,
        -8.1917e-02,  4.5740e-02, -2.6421e-02, -2.3598e-02, -6.9335e-02,
         5.9795e-02, -7.1131e-02,  7.2712e-02, -5.0617e-02,  6.5566e-02,
        -3.1723e-02, -2.6946e-03, -1.0312e-01,  3.2500e-02,  3.1455e-02,
         3.7060e-02,  3.8038e-02, -5.9449e-02, -7.3870e-02, -2.6499e-02,
        -6.9665e-02,  8.4057e-02,  7.9282e-02, -4.3299e-02,  3.8483e-03,
         3.7027e-02,  2.1072e-03,  1.1760e-01, -6.2806e-03, -2.8335e-02,
        -1.4986e-01, -3.2100e-02,  6.9194e-02,  1.0233e-01, -3.7659e-03,
        -6.6563e-02, -2.8083e-02, -8.3397e-03,  9.8906e-02,  6.4569e-02,
        -1.2675e-01,  3.7476e-02,  6.7055e-02, -2.6293e-02,  8.1667e-02,
         8.8085e-02, -5.6278e-02, -4.4372e-02, -1.2808e-02,  1.1925e-01,
         3.4465e-03, -7.2373e-03,  3.1246e-02,  4.6118e-02, -1.7410e-02,
        -1.0275e-01,  7.7512e-03,  8.1649e-02,  8.4393e-02,  3.9582e-02,
         1.1730e-01, -9.9986e-03, -4.3462e-03, -1.2058e-01,  1.1083e-01,
         4.3826e-03,  6.5667e-02, -1.8000e-01, -1.9432e-02, -1.0049e-01,
        -5.5957e-02, -4.7568e-02,  2.3000e-02, -5.7174e-02,  4.7710e-03,
        -1.4444e-02,  6.3521e-02,  6.8607e-03,  2.1258e-02,  2.1426e-02,
         1.3350e-01,  1.6579e-02,  7.4976e-02,  4.8213e-02, -9.2476e-02,
        -9.4040e-02,  3.1650e-02, -1.1531e-02,  5.1791e-02,  4.5943e-02,
        -7.7342e-02,  2.3559e-02,  4.6776e-02,  1.2548e-02,  4.4613e-02,
        -2.0173e-02, -6.1389e-02, -3.7092e-02,  4.3362e-02, -7.1519e-04,
        -7.1087e-02, -9.0974e-02], device='cuda:0')
Parameter name: transformer.layers.0.1.net.1.weight, Parameter value: tensor([[ 0.0871, -0.0077,  0.0067,  ...,  0.0031,  0.0452,  0.0459],
        [ 0.0145, -0.0126,  0.0132,  ..., -0.0313,  0.0934,  0.0283],
        [-0.0069, -0.0054,  0.0083,  ..., -0.0849,  0.0631, -0.0338],
        ...,
        [ 0.0352,  0.0310,  0.0157,  ..., -0.0199, -0.0236,  0.1099],
        [ 0.0240, -0.0106,  0.0125,  ..., -0.0026, -0.0042,  0.0157],
        [ 0.0036, -0.0024, -0.0174,  ...,  0.0383,  0.0102, -0.0449]],
       device='cuda:0')
Parameter name: transformer.layers.0.1.net.1.bias, Parameter value: tensor([-0.0047, -0.0002, -0.0592, -0.0761, -0.0684, -0.0252, -0.0252, -0.0374,
        -0.0613, -0.0732, -0.0611, -0.0318,  0.0021, -0.0412, -0.1178, -0.0667,
        -0.0623, -0.0883, -0.0955, -0.0247,  0.0056, -0.0426, -0.0800, -0.0679,
        -0.0317, -0.0364,  0.0013, -0.0356, -0.0709, -0.0274, -0.0414, -0.0482,
        -0.0686, -0.0540, -0.0876, -0.0831, -0.0676, -0.0175, -0.0109, -0.0536,
         0.0108, -0.0723, -0.0348, -0.0432, -0.0311,  0.0057, -0.0782, -0.0919,
        -0.0670, -0.0583, -0.0168, -0.0745, -0.0100, -0.0701, -0.0812, -0.0493,
        -0.0497, -0.0004, -0.0383, -0.0221, -0.0269, -0.0871, -0.0364, -0.0366,
        -0.0309, -0.0758, -0.1045, -0.0120, -0.0651, -0.0557, -0.0947, -0.0028,
        -0.0867, -0.0233, -0.0686, -0.0009, -0.0628, -0.0577, -0.0106, -0.0623,
        -0.0666, -0.0628, -0.0597, -0.0076, -0.0771,  0.0118, -0.0597, -0.0625,
        -0.0611,  0.0147, -0.0762, -0.0125, -0.0998,  0.0091, -0.0742, -0.0629,
        -0.0347, -0.0393, -0.0111, -0.0272, -0.0095, -0.0567, -0.0211, -0.0860,
        -0.0640, -0.0255, -0.0934, -0.0694, -0.0366, -0.0158, -0.0272, -0.0273,
        -0.0878, -0.0684, -0.0177, -0.0658, -0.0531,  0.0009, -0.0235, -0.0495,
        -0.0090, -0.0692, -0.0398, -0.0150, -0.0708, -0.0094, -0.0665, -0.0793,
        -0.0342, -0.0637, -0.0393, -0.0750, -0.0255, -0.0479, -0.0925, -0.0090,
        -0.0270, -0.0679, -0.0733, -0.0095, -0.0176, -0.0156, -0.0752,  0.0007,
        -0.0408, -0.0176, -0.0888, -0.0078, -0.0216, -0.0156,  0.0042, -0.0143,
        -0.0518, -0.0608, -0.0009, -0.0245,  0.0018, -0.0616, -0.0206, -0.0367,
        -0.0541, -0.0342, -0.0305, -0.0786, -0.0739, -0.0145, -0.0311, -0.0854,
        -0.0033, -0.0268, -0.0325, -0.0431, -0.0148, -0.0428, -0.0741, -0.0800,
        -0.0595,  0.0336, -0.0799, -0.0106, -0.0027, -0.0288, -0.0794, -0.0633,
        -0.0114, -0.0248, -0.0473, -0.0487, -0.0639, -0.0373, -0.0099, -0.0425,
        -0.0646, -0.0142, -0.0912, -0.0038, -0.0327, -0.0533, -0.0814, -0.0458,
        -0.0236, -0.0663, -0.0043, -0.0450, -0.0493, -0.0649, -0.0898, -0.0463,
        -0.0326, -0.0183, -0.0576, -0.0671,  0.0018, -0.0897, -0.0781, -0.0351,
        -0.0181, -0.0495, -0.0191, -0.0438,  0.0019, -0.0547, -0.0444, -0.0384,
        -0.0337, -0.0112, -0.0821, -0.0934, -0.0846, -0.0871, -0.0675, -0.0010,
        -0.0185, -0.0509, -0.0369, -0.0348, -0.0224, -0.0901, -0.0598, -0.0364,
        -0.0936, -0.0114, -0.0788, -0.0121,  0.0119, -0.0426, -0.0114, -0.0837,
        -0.0631, -0.0565, -0.0557, -0.0665,  0.0083, -0.0366, -0.0614, -0.0199,
        -0.0242, -0.0002, -0.0243, -0.0570, -0.0579, -0.0468, -0.0206, -0.0516,
        -0.0116, -0.0144, -0.0254, -0.0765, -0.0337, -0.0424, -0.0344, -0.0432,
        -0.0551, -0.0622, -0.0821, -0.0024, -0.0484, -0.0360, -0.0575, -0.0405,
        -0.0756, -0.0616, -0.0329, -0.0860, -0.0367, -0.0400, -0.0555, -0.0635,
        -0.0305, -0.0030, -0.0017, -0.0521, -0.0877, -0.0265, -0.0181, -0.0221,
        -0.0451, -0.0943, -0.0759, -0.0406, -0.0562, -0.0581, -0.0001, -0.0397,
        -0.0039, -0.0997, -0.0417, -0.0611, -0.0178, -0.0100, -0.0557, -0.0646,
        -0.0826, -0.0315, -0.0454, -0.0871,  0.0057, -0.0056, -0.0168, -0.0696,
        -0.1019, -0.0739, -0.1055, -0.0391, -0.0317, -0.0967, -0.0760, -0.0896,
        -0.0650, -0.0183, -0.0681, -0.0151, -0.0111, -0.0080, -0.0870, -0.0582,
        -0.0057, -0.0901, -0.0668, -0.0749, -0.0504, -0.0683, -0.0602, -0.0106,
        -0.0499, -0.0136, -0.0537, -0.0158, -0.0640, -0.0713, -0.0559, -0.0789,
        -0.0751, -0.0263, -0.0264, -0.0446, -0.0764, -0.0477, -0.0158, -0.0477,
        -0.0245, -0.0612, -0.0515, -0.0148, -0.0227, -0.0865,  0.0182, -0.0383,
        -0.0445,  0.0022, -0.0692, -0.0168, -0.0615, -0.0965, -0.0878, -0.0433,
        -0.0830, -0.0144, -0.0766, -0.1023, -0.0696, -0.0807, -0.0199, -0.0649,
        -0.0869, -0.0143, -0.0713, -0.0419, -0.0290, -0.0371, -0.0201, -0.0430,
        -0.0462,  0.0123, -0.0607, -0.0759, -0.0240,  0.0022, -0.0532, -0.0962,
        -0.0894, -0.0425, -0.0097, -0.0353, -0.0626, -0.0448, -0.0702, -0.0470,
        -0.0849, -0.0340, -0.0921, -0.0587, -0.0655, -0.0334,  0.0168,  0.0045,
        -0.0327,  0.0020, -0.0634, -0.1087, -0.0235, -0.0276, -0.0617, -0.0550,
        -0.0743, -0.0210, -0.0668, -0.0359, -0.0588, -0.0025, -0.0216, -0.0698,
        -0.0311, -0.0523,  0.0075, -0.0850, -0.0344,  0.0063, -0.0254, -0.0642,
        -0.0768, -0.0312, -0.0788, -0.0115, -0.0564, -0.0123, -0.0405, -0.0488,
        -0.0286, -0.0192, -0.0553, -0.0591, -0.0239, -0.0043,  0.0087, -0.0604,
        -0.0767, -0.0561, -0.0359, -0.0155, -0.0473, -0.0437, -0.0577, -0.0316,
        -0.1303, -0.0259, -0.0197, -0.0799, -0.0723, -0.0063, -0.0579, -0.0069,
        -0.0717, -0.0202, -0.0183, -0.0254, -0.0615, -0.0477, -0.0445, -0.0207,
        -0.0870, -0.0248, -0.0678, -0.0468, -0.0376, -0.0803, -0.0356, -0.0459,
        -0.0426, -0.0741, -0.0811, -0.0877, -0.0387, -0.0650, -0.0016,  0.0030,
        -0.0343, -0.0799, -0.0293, -0.0175, -0.0469, -0.0364, -0.0418, -0.0797,
        -0.0213, -0.0233, -0.0546, -0.0696, -0.0529, -0.0593, -0.0647, -0.0288],
       device='cuda:0')
Parameter name: transformer.layers.0.1.net.4.weight, Parameter value: tensor([[ 0.0022,  0.0165, -0.0133,  ...,  0.0751, -0.0335,  0.0154],
        [ 0.0454, -0.0214, -0.0445,  ..., -0.0453, -0.0037,  0.0444],
        [-0.0030,  0.0102,  0.0008,  ..., -0.0416,  0.0309,  0.0201],
        ...,
        [ 0.0072,  0.0346,  0.0162,  ..., -0.0093,  0.0310,  0.0319],
        [ 0.0665,  0.0155, -0.0154,  ..., -0.0410, -0.0357, -0.0398],
        [-0.0153,  0.0437,  0.0294,  ..., -0.0296, -0.0418,  0.0368]],
       device='cuda:0')
Parameter name: transformer.layers.0.1.net.4.bias, Parameter value: tensor([ 2.3573e-02, -3.4584e-02,  1.9081e-02,  1.5713e-02,  1.8169e-02,
         3.8277e-02, -1.3683e-02,  4.0074e-02,  3.0090e-02,  2.7240e-02,
         4.4352e-03, -5.9962e-02,  3.0187e-02, -4.0575e-03, -1.5849e-03,
        -3.5969e-02, -2.1533e-02, -1.7034e-02, -3.1048e-02,  2.2466e-02,
        -3.6474e-02, -8.2167e-03,  2.3296e-02,  6.1416e-03,  2.7968e-02,
        -1.2376e-02, -2.9440e-02,  3.0588e-02, -3.3819e-02,  1.4247e-02,
        -3.6263e-02,  3.2683e-04,  4.3965e-02,  9.6056e-02, -3.3094e-02,
        -5.0768e-03, -1.0058e-03,  4.1243e-02,  5.6351e-03,  5.0436e-02,
         1.9589e-03, -4.0289e-02,  2.1058e-02,  1.0468e-02, -5.8625e-02,
         5.6600e-02,  1.3081e-03,  1.6192e-03, -3.0868e-02, -4.5772e-02,
        -1.8174e-02,  3.0030e-02, -2.5812e-03, -2.2880e-02,  5.4854e-03,
         2.8793e-02, -3.9115e-02,  1.1262e-02,  1.1875e-02, -2.9789e-02,
         1.7127e-02,  2.7329e-02, -3.8603e-02,  1.7084e-02,  1.8576e-02,
         1.9698e-03,  1.1781e-02,  1.0429e-04,  1.6668e-02, -2.3047e-02,
        -1.2439e-02,  3.3535e-02, -6.8035e-03, -2.8504e-02,  1.0157e-02,
        -4.2819e-02,  1.3138e-03,  2.7487e-02, -2.3606e-02,  4.5102e-02,
        -1.3349e-03, -4.4907e-02, -8.2123e-02, -2.0280e-02,  3.8617e-02,
         2.2858e-02,  4.2966e-02, -1.3129e-02, -3.6099e-02, -5.8634e-03,
        -1.4637e-02, -2.6546e-02, -9.4774e-03,  3.0021e-03,  5.4910e-02,
        -5.7878e-02, -1.3828e-02,  4.1694e-03,  1.4482e-02, -2.5743e-02,
         5.5396e-02, -3.1137e-02,  1.8307e-02,  2.6309e-02,  2.2837e-02,
        -1.6854e-02, -2.0294e-02, -3.2955e-02, -4.3267e-03, -3.2801e-02,
         7.5513e-03,  7.5874e-03, -1.9223e-02, -1.5902e-02, -4.6802e-03,
        -1.0448e-02, -2.4693e-01,  3.4978e-02, -3.0735e-02, -2.7929e-02,
        -1.9666e-02, -1.7047e-02,  7.7861e-02, -5.2346e-05,  2.4364e-02,
        -6.1656e-02,  6.4157e-03,  1.1239e-03, -2.1726e-02,  4.4689e-02,
         5.5679e-02, -1.0267e-02, -2.9436e-03, -5.4141e-02, -3.8067e-02,
         3.2456e-02, -3.8070e-03,  1.5598e-02, -2.6272e-02,  2.1913e-02,
        -1.0406e-02, -1.0316e-02,  7.5174e-03, -3.1491e-02, -1.5520e-01,
        -2.7421e-02, -6.4377e-03, -1.3263e-02,  3.9674e-02, -2.5027e-02,
         2.6680e-02, -2.7565e-02, -2.9135e-02,  2.4102e-02, -4.5045e-03,
         2.4374e-02, -4.6316e-02, -4.1639e-03,  2.1842e-02,  9.7754e-04,
        -1.7868e-02,  1.3281e-02, -1.9941e-02,  1.5650e-03, -1.2835e-02,
         2.5794e-02,  1.2958e-02, -2.2753e-03, -1.9932e-02,  2.5170e-02,
         1.4653e-02, -1.8904e-02,  5.4422e-03,  2.7403e-02,  3.2486e-03,
         4.8469e-03, -3.1210e-02,  3.2379e-02, -3.0822e-02, -9.8446e-03,
        -1.2941e-02,  6.0237e-02, -2.2222e-02,  1.0480e-02, -3.7268e-04,
         1.4824e-02,  6.5844e-02, -5.6485e-02, -2.5546e-02,  4.3737e-02,
         1.8773e-02, -3.8157e-02, -3.6974e-03, -3.4428e-02, -1.4115e-02,
         7.9038e-03, -2.0002e-03,  3.9408e-02,  3.5602e-02, -3.4553e-02,
         5.2646e-03,  2.9057e-02,  2.3267e-02, -2.9904e-02,  2.4132e-02,
        -4.9068e-03, -1.6400e-02, -8.5661e-03, -1.1989e-02, -4.3108e-02,
         7.4642e-03,  2.3541e-02, -4.4911e-02,  3.4185e-02,  3.0608e-02,
        -1.5550e-02, -5.2151e-03,  3.0441e-02, -1.3461e-03,  8.7110e-04,
        -3.7816e-02,  3.0779e-02, -3.5292e-02, -3.0232e-02, -2.8783e-02,
        -4.3656e-02,  3.4371e-02,  2.8699e-02,  5.3096e-03, -2.1257e-02,
        -1.9107e-02,  2.1593e-02, -1.0905e-02, -6.3608e-03, -1.4267e-02,
         2.2780e-02,  2.2326e-02,  3.0558e-02, -3.4631e-02,  6.6814e-04,
         1.2003e-02,  3.4493e-03,  4.5313e-02, -2.4086e-02,  1.4225e-02,
        -1.8982e-03,  9.4327e-03, -2.4142e-02,  2.4219e-02, -1.8475e-02,
         2.8648e-02, -1.0989e-02, -4.4118e-02, -2.4672e-02, -2.0319e-02,
         2.4528e-02, -2.6014e-02,  2.3045e-02,  4.2589e-02, -3.1577e-02,
        -3.7016e-02, -1.1449e-02,  2.4553e-02, -4.7919e-02, -6.7780e-03,
        -2.4727e-02, -4.0005e-02, -5.3114e-03, -1.6525e-02, -1.6513e-02,
         2.5520e-03, -5.3533e-02, -8.9451e-03,  1.2474e-02,  4.9430e-02,
         3.3034e-02, -3.3213e-02,  1.3598e-02, -5.9678e-03,  5.8477e-02,
         4.8805e-02, -3.0962e-02, -2.3332e-02,  2.4663e-02,  4.9698e-03,
         3.7805e-03,  3.4311e-02, -8.4482e-03, -4.3289e-02, -8.5970e-03,
        -3.1916e-02,  3.0755e-02, -3.3325e-02, -9.9938e-03, -2.3136e-02,
        -1.3490e-02,  2.4805e-02, -2.7277e-02,  4.2238e-02, -2.6600e-02,
        -1.1966e-02,  1.4251e-02, -3.2508e-02, -5.1402e-02,  8.7495e-03,
        -1.6074e-02, -5.7371e-02, -4.8778e-03,  2.7390e-02, -7.7349e-03,
        -2.8500e-02,  5.5058e-02,  3.6888e-02,  2.7691e-02,  1.5378e-02,
        -1.1025e-02,  6.8997e-03, -5.1941e-02,  4.9837e-03,  1.5960e-02,
         3.1192e-02, -6.8872e-03, -7.1569e-04, -3.8290e-02,  2.9393e-02,
        -3.0950e-02, -5.0757e-02, -1.6119e-03, -5.9149e-03,  4.2902e-02,
        -2.6692e-02,  5.5723e-03, -1.2165e-02, -2.0052e-02, -2.8676e-02,
         5.9312e-03,  2.9562e-03,  2.1459e-03,  1.0580e-02,  4.0960e-02,
        -1.9994e-02,  1.3748e-02, -4.5661e-02, -1.2170e-02,  7.6112e-03,
         4.8165e-02, -9.1605e-03, -3.7350e-02, -1.2671e-02, -1.0821e-02,
         1.9612e-02, -1.0775e-02, -5.7056e-02,  5.1721e-03, -1.8284e-02,
        -2.4204e-02,  2.7151e-03, -5.3935e-02, -8.7291e-03, -1.9287e-02,
        -3.3263e-02, -2.2403e-02, -3.5892e-03, -5.1170e-02, -2.7719e-02,
        -9.3037e-03, -3.3877e-02,  3.5780e-03,  1.9584e-02, -1.8032e-02,
         4.3710e-02,  3.7299e-03, -4.2077e-02, -6.0350e-03,  8.2599e-05,
         6.7785e-03, -2.9222e-02,  1.3096e-03,  2.3143e-03,  1.0805e-02,
        -4.2241e-02,  1.5643e-02, -3.0977e-02, -4.4933e-03, -5.0066e-02,
         4.1247e-02,  3.2051e-02, -1.9745e-02,  3.1548e-02, -3.1521e-02,
        -1.1700e-02, -3.0071e-02, -4.8599e-02,  5.7651e-02,  2.0923e-02,
         1.0211e-02,  2.9925e-02, -3.3021e-03,  4.2416e-02,  8.8243e-02,
        -8.1674e-03,  6.0606e-03,  8.3372e-03, -3.4277e-03,  3.2454e-02,
         8.0446e-03,  1.9401e-02, -4.9603e-02,  2.2136e-02, -5.7913e-03,
        -3.6000e-02,  4.0566e-02,  3.7653e-03,  2.7255e-02,  4.2786e-02,
        -8.2149e-03, -1.8558e-02, -2.1245e-02, -1.6667e-02,  3.4830e-02,
        -5.1879e-02,  5.2546e-02,  4.7943e-03,  2.7685e-02,  3.9215e-02,
        -2.9551e-02, -1.9757e-03, -1.0527e-02,  1.6859e-02,  3.4648e-02,
        -1.0530e-02, -1.1231e-02,  3.4601e-03,  4.6002e-02,  3.1289e-04,
        -3.2227e-02,  7.2265e-03, -3.4075e-04,  4.4996e-02, -3.9192e-02,
         5.9847e-03,  2.4108e-02, -2.9815e-02, -1.0337e-02, -1.0919e-02,
        -3.3928e-02,  4.4045e-02,  1.1863e-02, -1.8030e-02, -1.7512e-02,
        -3.1936e-02, -2.5286e-02,  7.2937e-03,  1.5503e-03,  2.3628e-02,
        -8.0049e-04,  5.8016e-02, -4.0616e-02, -5.4535e-02,  3.2347e-02,
         2.5374e-02,  2.0054e-02, -3.7419e-03, -4.1795e-02,  1.4137e-02,
        -1.9211e-02,  1.8579e-02, -8.2088e-03, -2.0419e-03, -4.6908e-02,
         1.1935e-01, -1.4940e-02, -1.4806e-02, -2.3093e-02, -6.4529e-02,
        -4.1712e-03,  1.9932e-02, -7.8029e-03,  7.9800e-03, -3.5818e-02,
        -2.9529e-03,  4.2709e-04, -4.7349e-04, -3.2587e-02, -4.1605e-02,
        -1.6324e-03, -4.3532e-04, -2.1554e-02,  5.1226e-03, -2.7240e-02,
         2.3301e-02,  2.9473e-03, -4.2934e-02,  1.1569e-02, -3.3544e-02,
         1.7743e-03, -1.9739e-02, -2.6636e-02,  2.5752e-02,  7.5333e-02,
         1.4070e-02, -6.7498e-03,  2.6964e-02,  1.9239e-02,  1.7963e-02,
        -2.6215e-02,  3.7692e-02, -1.4980e-02,  7.2089e-03,  6.1650e-03,
        -4.3320e-02, -2.0869e-02], device='cuda:0')
Parameter name: transformer.layers.1.0.norm.weight, Parameter value: tensor([0.8966, 0.7663, 0.7895, 0.7945, 0.8235, 0.8090, 0.8267, 0.8066, 0.8439,
        0.8467, 0.8049, 0.8643, 0.8109, 0.8091, 0.8033, 0.7864, 0.8341, 0.8257,
        0.8607, 0.8568, 0.8128, 0.8021, 0.7704, 0.7966, 0.8623, 0.8476, 0.8130,
        0.8017, 0.7732, 0.8905, 0.8362, 0.8238, 0.8545, 0.7394, 0.8145, 0.8121,
        0.7379, 0.7756, 0.8637, 0.8450, 0.8254, 0.8013, 0.8412, 0.8176, 0.8576,
        0.8449, 0.8494, 0.7945, 0.7991, 0.8324, 0.8556, 0.8338, 0.7865, 0.8310,
        0.8392, 0.7984, 0.8426, 0.8202, 0.7474, 0.8156, 0.8582, 0.8290, 0.7801,
        0.8147, 0.8437, 0.8272, 0.8468, 0.8690, 0.8454, 0.8424, 0.8649, 0.8219,
        0.8569, 0.8437, 0.8641, 0.8140, 0.8315, 0.8363, 0.8388, 0.8356, 0.7674,
        0.8229, 0.8325, 0.8344, 0.8602, 0.7493, 0.8878, 0.8327, 0.8192, 0.8247,
        0.8529, 0.7800, 0.8124, 0.8208, 0.8785, 0.8456, 0.8056, 0.8436, 0.8515,
        0.7809, 0.8173, 0.8397, 0.7888, 0.8008, 0.8023, 0.8243, 0.8566, 0.7900,
        0.8760, 0.8343, 0.7863, 0.8711, 0.8376, 0.7896, 0.8427, 0.7964, 0.6542,
        0.8387, 0.8021, 0.8585, 0.7896, 0.8267, 0.7664, 0.8367, 0.8266, 0.8130,
        0.7206, 0.8515, 0.8345, 0.8478, 0.8698, 0.8027, 0.8085, 0.8375, 0.7829,
        0.8472, 0.8571, 0.8512, 0.8068, 0.8739, 0.8943, 0.8913, 0.8665, 0.8134,
        0.7032, 0.8094, 0.8340, 0.8318, 0.8286, 0.8176, 0.8349, 0.8516, 0.7998,
        0.8719, 0.8193, 0.8512, 0.7964, 0.8516, 0.8316, 0.8558, 0.8438, 0.8248,
        0.8604, 0.7928, 0.8537, 0.8240, 0.8211, 0.8442, 0.8264, 0.8507, 0.8117,
        0.8107, 0.8485, 0.8669, 0.8656, 0.8753, 0.8900, 0.7738, 0.8985, 0.8066,
        0.8007, 0.7564, 0.8117, 0.8594, 0.8750, 0.8122, 0.8646, 0.8245, 0.7984,
        0.8233, 0.7927, 0.8949, 0.8277, 0.7896, 0.8187, 0.8047, 0.8589, 0.8153,
        0.8126, 0.8420, 0.8257, 0.7664, 0.8612, 0.8624, 0.7411, 0.8224, 0.8345,
        0.8579, 0.8397, 0.8130, 0.8605, 0.8077, 0.7279, 0.8085, 0.8627, 0.8017,
        0.8443, 0.8112, 0.8083, 0.8218, 0.7870, 0.8515, 0.8504, 0.7211, 0.8716,
        0.8223, 0.8156, 0.8070, 0.8920, 0.8491, 0.8352, 0.8310, 0.8444, 0.7550,
        0.8117, 0.8278, 0.7889, 0.8089, 0.8670, 0.8401, 0.8297, 0.8000, 0.8284,
        0.8405, 0.8352, 0.8215, 0.8484, 0.8584, 0.8303, 0.7857, 0.7861, 0.7914,
        0.7835, 0.8506, 0.8244, 0.8494, 0.8677, 0.8411, 0.8571, 0.8000, 0.8246,
        0.8526, 0.8958, 0.7583, 0.8323, 0.8295, 0.8077, 0.8391, 0.8170, 0.8638,
        0.8584, 0.8316, 0.7851, 0.7873, 0.7870, 0.8122, 0.8311, 0.8683, 0.8035,
        0.7150, 0.8276, 0.8365, 0.7807, 0.8294, 0.8645, 0.8521, 0.8240, 0.8158,
        0.8513, 0.8111, 0.8262, 0.8285, 0.8239, 0.8586, 0.8369, 0.7799, 0.8576,
        0.8357, 0.8174, 0.8595, 0.7578, 0.8666, 0.8131, 0.8361, 0.7665, 0.8698,
        0.8427, 0.8218, 0.8255, 0.8202, 0.8767, 0.8616, 0.8378, 0.8170, 0.7816,
        0.8606, 0.8646, 0.8431, 0.8670, 0.8325, 0.8480, 0.8771, 0.8463, 0.8699,
        0.8024, 0.7839, 0.8608, 0.7978, 0.8205, 0.8436, 0.8528, 0.8607, 0.8335,
        0.8459, 0.8491, 0.8191, 0.8315, 0.8481, 0.8082, 0.8262, 0.8632, 0.8491,
        0.7944, 0.8424, 0.8541, 0.8142, 0.8621, 0.8495, 0.8155, 0.8179, 0.8432,
        0.8352, 0.8202, 0.7989, 0.7999, 0.8262, 0.8074, 0.7762, 0.8073, 0.8258,
        0.8197, 0.8593, 0.8114, 0.7989, 0.8321, 0.7738, 0.8521, 0.8273, 0.8380,
        0.8211, 0.8111, 0.8779, 0.8275, 0.8500, 0.7913, 0.7689, 0.8223, 0.8316,
        0.8366, 0.8020, 0.8052, 0.7972, 0.8175, 0.8278, 0.7890, 0.8349, 0.8674,
        0.8322, 0.8078, 0.7986, 0.8490, 0.7887, 0.8016, 0.8271, 0.7739, 0.8117,
        0.8495, 0.8599, 0.8081, 0.7428, 0.7956, 0.8759, 0.7881, 0.8378, 0.8663,
        0.8241, 0.7919, 0.7974, 0.8409, 0.8249, 0.8024, 0.8501, 0.8682, 0.7884,
        0.8101, 0.7968, 0.8630, 0.8460, 0.8370, 0.8254, 0.8438, 0.8764, 0.8328,
        0.8405, 0.8243, 0.8200, 0.8338, 0.8454, 0.8416, 0.8088, 0.8539, 0.7557,
        0.7997, 0.8434, 0.8585, 0.8534, 0.8250, 0.8512, 0.8485, 0.8545, 0.7661,
        0.8190, 0.8471, 0.8189, 0.8359, 0.8442, 0.8027, 0.8118, 0.8324, 0.8210,
        0.8239, 0.8207, 0.8840, 0.8217, 0.7721, 0.8784, 0.8512, 0.8187, 0.8428,
        0.8376, 0.8254, 0.8107, 0.7746, 0.8564, 0.7904, 0.7701, 0.8505, 0.8342,
        0.8086, 0.7927, 0.6987, 0.7749, 0.8518, 0.8083, 0.8238, 0.8371, 0.7837,
        0.8358, 0.8946, 0.8283, 0.8690, 0.8427, 0.8687, 0.8094, 0.8218, 0.8395,
        0.8145, 0.8328, 0.7765, 0.8568, 0.8245, 0.8516, 0.7856, 0.8606, 0.8228,
        0.7975, 0.7879, 0.8565, 0.8026, 0.7431, 0.8435, 0.8162, 0.8279, 0.8317,
        0.8706, 0.8153, 0.8582, 0.7961, 0.7940, 0.8417, 0.7551, 0.8477],
       device='cuda:0')
Parameter name: transformer.layers.1.0.norm.bias, Parameter value: tensor([-0.0167,  0.1288,  0.1106,  0.0389,  0.0393, -0.0247,  0.0217, -0.0151,
         0.0227,  0.0012, -0.0526, -0.0398, -0.0833,  0.0379,  0.0801, -0.0561,
        -0.0265, -0.0731,  0.0535,  0.0120, -0.0356, -0.0420,  0.0178, -0.0052,
         0.0407, -0.0142,  0.0227, -0.0570,  0.0204, -0.0096, -0.0049,  0.0653,
         0.0178, -0.1087,  0.0304,  0.0371, -0.1323, -0.0300, -0.0278,  0.0270,
        -0.0352, -0.0043, -0.0376,  0.0344, -0.0047,  0.0199,  0.0443,  0.0544,
         0.0730, -0.0597,  0.0070,  0.0147, -0.0591, -0.0554,  0.0198, -0.1149,
        -0.0206,  0.0696,  0.0860, -0.0493, -0.0167,  0.0207,  0.0252, -0.0442,
        -0.0309, -0.0867,  0.0411,  0.0028,  0.0382,  0.0423, -0.0499,  0.1033,
        -0.0779,  0.1130,  0.0636, -0.0450,  0.0728, -0.0271,  0.0032,  0.0232,
         0.0638,  0.0186, -0.0057,  0.0734, -0.0234, -0.1306, -0.0008,  0.0571,
        -0.0897, -0.0155, -0.0322,  0.0606,  0.0157, -0.0225,  0.0022, -0.0293,
        -0.0040,  0.0246,  0.0195, -0.0217,  0.0270, -0.0545,  0.1078,  0.0602,
         0.0466, -0.0143,  0.0286,  0.0177, -0.0296,  0.0201, -0.0621,  0.0275,
        -0.0683,  0.1307, -0.0255, -0.0592,  0.1103,  0.0848, -0.0690, -0.0096,
         0.0970, -0.0479, -0.0625, -0.0333,  0.0052,  0.0768, -0.0775, -0.0508,
        -0.0900,  0.0660,  0.0288, -0.0954,  0.0155, -0.0221, -0.0565, -0.0294,
         0.0065,  0.0439, -0.0276, -0.0183,  0.0049,  0.0021, -0.0004, -0.0010,
         0.0436, -0.0656, -0.0738, -0.0186, -0.0163,  0.0392,  0.0058,  0.0366,
         0.0916,  0.0138,  0.0415,  0.0364,  0.0510, -0.0507, -0.0415,  0.0412,
        -0.0190, -0.0335, -0.0063,  0.0526, -0.0707, -0.0044, -0.0169,  0.0478,
         0.0262, -0.0297,  0.0988, -0.1182, -0.0286, -0.0316,  0.0008,  0.0137,
        -0.0183,  0.0373, -0.0373, -0.0874, -0.0527, -0.1082,  0.0110, -0.0461,
        -0.0124, -0.0906, -0.0148, -0.0677, -0.0114,  0.0205,  0.0210, -0.0066,
        -0.0449, -0.0201,  0.0703,  0.0682, -0.0508,  0.0386, -0.0092, -0.0677,
         0.0305,  0.0341,  0.0307,  0.0338, -0.0798,  0.0336,  0.0015, -0.0177,
         0.0014,  0.0042, -0.0151, -0.0895, -0.0128, -0.0643,  0.0288,  0.0147,
         0.0726,  0.0858, -0.0064,  0.0448, -0.0036,  0.0341,  0.0373,  0.1399,
         0.0113,  0.0482, -0.0478,  0.0749, -0.0173,  0.0564,  0.0561,  0.0657,
        -0.0110,  0.1187,  0.0568,  0.0704,  0.0673,  0.0386,  0.0233,  0.0012,
        -0.0581, -0.0537, -0.0015,  0.0396,  0.0463, -0.0559, -0.0127,  0.0269,
        -0.0451,  0.0769,  0.0183, -0.0045, -0.0980, -0.0019,  0.0164,  0.0569,
         0.0167, -0.0505,  0.0053,  0.0208, -0.0447, -0.0755,  0.0247, -0.0120,
         0.0474, -0.0042, -0.0115, -0.0071, -0.0529,  0.0519,  0.0921,  0.0128,
        -0.0198,  0.0678, -0.0121, -0.0256, -0.0303,  0.0018,  0.0532, -0.0750,
         0.0889,  0.0407,  0.0176,  0.0285, -0.0108, -0.0566, -0.0232,  0.0869,
        -0.0079,  0.0311, -0.0350, -0.0258,  0.0134,  0.0295, -0.0013,  0.0909,
        -0.0656, -0.0119, -0.0840,  0.0316, -0.1243, -0.0339,  0.0673, -0.0765,
        -0.0638,  0.0115,  0.0321, -0.0331,  0.0084, -0.0398, -0.0239,  0.0253,
         0.0073, -0.0148,  0.0677,  0.0807, -0.0048,  0.0248, -0.0225,  0.0242,
         0.0287, -0.0372, -0.0383,  0.0153,  0.0645, -0.0641,  0.0119, -0.0790,
        -0.0355, -0.0197,  0.0129, -0.0243,  0.0453,  0.0033, -0.0075, -0.0269,
         0.0299, -0.0091,  0.0325,  0.0592, -0.0552,  0.0676, -0.0449, -0.0165,
        -0.0072,  0.0729,  0.0504, -0.0342, -0.0636,  0.0987,  0.0228,  0.0087,
        -0.0093,  0.0134,  0.0692, -0.0187, -0.1285, -0.1452, -0.0082, -0.0281,
        -0.0425,  0.0226,  0.0282, -0.0379, -0.0428,  0.0726,  0.0029, -0.0061,
         0.0589, -0.0544, -0.0366,  0.0387, -0.0841,  0.0764, -0.0322, -0.1148,
         0.0572,  0.0021, -0.0060,  0.0865,  0.0026, -0.0310, -0.0214,  0.0104,
         0.0910, -0.0235, -0.0402, -0.0176, -0.0271,  0.0872,  0.0379,  0.0907,
        -0.0798,  0.0665,  0.0311,  0.0123,  0.0177,  0.0588,  0.0523, -0.0828,
        -0.0415,  0.0473,  0.0546,  0.0273,  0.0255, -0.0549,  0.0327, -0.0192,
         0.0172, -0.0489,  0.0738, -0.0415,  0.0365,  0.0333,  0.0597, -0.0745,
         0.0426, -0.0587, -0.0075, -0.0470, -0.0087,  0.0294,  0.1032,  0.0059,
        -0.0224, -0.0142,  0.0059,  0.0496,  0.0471, -0.0228,  0.0152, -0.0633,
        -0.0453,  0.0442, -0.0176, -0.0394, -0.0195, -0.0412,  0.0173,  0.0166,
         0.1081,  0.0135, -0.0307, -0.0522,  0.0268,  0.0924,  0.0362, -0.0216,
        -0.0153, -0.0172,  0.0600, -0.1370, -0.0453,  0.0415, -0.0792, -0.0794,
         0.0600,  0.0324, -0.0826, -0.0627, -0.0107, -0.0394, -0.0997, -0.0408,
        -0.0047,  0.0741,  0.0222, -0.0419, -0.0119, -0.0946, -0.1006,  0.0182,
        -0.0315,  0.0741, -0.1524, -0.0199, -0.0935,  0.0723, -0.0300,  0.0523,
        -0.0154,  0.0502, -0.0339, -0.0022, -0.0292,  0.0054, -0.0846, -0.0078,
        -0.0518,  0.0226, -0.0520, -0.0029, -0.0577, -0.0115,  0.0737,  0.1387,
         0.0061, -0.0075, -0.0306, -0.0456,  0.1040, -0.0293, -0.0351,  0.0083,
        -0.0151, -0.0374,  0.0250,  0.0016, -0.0866,  0.0009,  0.1668, -0.0263],
       device='cuda:0')
Parameter name: transformer.layers.1.0.to_qkv.weight, Parameter value: tensor([[ 0.0479, -0.0007, -0.0235,  ...,  0.0121, -0.0166,  0.0429],
        [-0.0266, -0.0214,  0.0259,  ..., -0.0095, -0.0467,  0.0129],
        [-0.0692, -0.0316, -0.0229,  ..., -0.0484, -0.0153, -0.0371],
        ...,
        [-0.0084, -0.0567,  0.0978,  ..., -0.0359,  0.0169, -0.0243],
        [ 0.0327, -0.0721,  0.0206,  ...,  0.0076,  0.0038, -0.0172],
        [ 0.0111, -0.0297,  0.0482,  ..., -0.0092, -0.0226,  0.0034]],
       device='cuda:0')
Parameter name: transformer.layers.1.0.to_out.0.weight, Parameter value: tensor([[-0.0319, -0.0012,  0.0522,  ...,  0.0839,  0.0163,  0.0342],
        [ 0.0442,  0.0626, -0.0596,  ..., -0.0349, -0.0332, -0.0219],
        [-0.0579, -0.0250,  0.0171,  ..., -0.0458, -0.0266, -0.0226],
        ...,
        [-0.0500, -0.0311,  0.0440,  ..., -0.0220, -0.0212,  0.0569],
        [ 0.0172,  0.0160, -0.0233,  ...,  0.0378,  0.0174,  0.0293],
        [ 0.0306,  0.0015, -0.0461,  ..., -0.0175, -0.0304, -0.0528]],
       device='cuda:0')
Parameter name: transformer.layers.1.0.to_out.0.bias, Parameter value: tensor([-1.5743e-02, -6.3126e-02,  5.3595e-03, -4.9541e-02, -4.7006e-02,
         2.1531e-02,  1.4624e-02,  4.5196e-02, -1.2094e-02,  1.2045e-02,
        -2.7143e-02,  3.6729e-02,  3.8057e-02, -1.2819e-02, -1.8992e-02,
         6.1606e-02, -2.8917e-02, -2.7984e-02, -3.8161e-02, -4.8985e-02,
        -5.4509e-02, -1.0342e-02, -2.0728e-02,  4.2675e-03,  3.1705e-03,
         3.7258e-02,  1.3523e-02,  5.3893e-02,  2.1474e-02, -1.1273e-02,
        -2.1477e-02,  1.6503e-03, -7.3806e-03,  6.0675e-02, -4.1508e-02,
        -2.4954e-03,  5.3000e-02,  4.5517e-02, -1.3335e-02, -1.6445e-02,
         2.5581e-02,  9.1820e-03,  1.8439e-02,  3.6428e-02, -3.2856e-03,
         5.1075e-02,  3.0382e-02,  1.1472e-02, -4.3981e-02,  3.3632e-02,
        -1.9107e-02, -4.6210e-02,  6.1378e-03,  1.0334e-02, -4.3532e-02,
         2.1748e-02, -5.9702e-02, -5.1739e-02, -1.2749e-02,  4.4812e-02,
         2.3905e-04, -3.6503e-02, -2.7926e-02, -9.3925e-03,  5.4219e-03,
         4.5812e-03,  2.4484e-03, -1.3602e-02,  8.8994e-03, -3.7475e-02,
        -2.6647e-02,  2.4968e-02,  1.0387e-02, -1.2016e-02, -1.1298e-02,
         2.5546e-02,  1.7883e-02,  1.4999e-02,  1.4455e-02, -2.1817e-02,
         5.9673e-03,  1.9053e-03, -6.2322e-02, -1.4577e-02, -1.1145e-02,
         7.6293e-03,  1.3844e-02,  1.0639e-02, -1.5860e-02, -8.6596e-03,
        -1.1149e-02, -4.0972e-02,  2.6438e-02, -3.8337e-02,  2.5158e-02,
         1.9016e-03, -6.2866e-03, -2.6378e-02, -3.7502e-02, -3.9161e-02,
        -2.1312e-02,  2.1574e-02, -4.3293e-02, -4.8739e-02,  1.5123e-02,
        -2.7104e-02, -6.3830e-03,  7.4478e-04,  2.1922e-02, -2.6371e-02,
        -2.2378e-02, -1.7907e-02,  4.6448e-02, -1.6594e-04, -3.1343e-03,
         2.4003e-03, -2.3609e-01,  3.0112e-02, -1.6096e-02, -4.6197e-02,
         3.2677e-02, -2.0358e-02,  8.8647e-02,  3.2719e-02,  2.1534e-02,
        -7.9672e-02,  1.9618e-02, -5.0302e-02, -4.7955e-02, -4.9876e-02,
        -4.4985e-02, -7.9237e-03, -2.1893e-02,  3.4211e-02,  2.5150e-02,
         2.9398e-02, -4.2737e-02, -2.8144e-02, -3.3085e-02,  1.5410e-02,
        -4.2551e-02,  4.4650e-02, -4.8055e-02,  2.2623e-02, -1.6530e-01,
         2.1772e-02,  1.3460e-02,  1.2388e-02,  2.7868e-02, -4.0862e-02,
         2.6359e-02,  2.3758e-02, -6.7060e-02,  5.9643e-03,  6.5240e-03,
        -1.5859e-02, -5.2751e-02, -2.0557e-02, -1.5065e-02,  2.0700e-04,
         2.2471e-02,  3.1633e-02, -2.4156e-02,  2.1613e-02, -1.5844e-02,
         3.3619e-02,  3.3435e-02,  4.4604e-03, -2.7353e-02, -2.5098e-02,
         4.6174e-03,  3.6517e-02, -4.8926e-02, -4.3325e-02, -1.5464e-02,
        -9.9984e-03,  2.0079e-03,  4.1812e-03,  6.0504e-03, -1.3589e-03,
        -3.2542e-02,  5.2955e-03, -5.9149e-03,  3.3016e-02,  5.3013e-02,
        -1.1187e-03,  1.5923e-02, -3.2569e-02,  2.6278e-02,  3.1589e-02,
         4.3049e-03, -1.3191e-02,  1.7675e-02,  2.5149e-02, -8.9440e-03,
         1.7749e-02, -4.1410e-02,  1.0846e-02, -1.0698e-02,  3.5577e-03,
        -2.8966e-02,  1.5630e-02, -8.4996e-03,  9.7337e-03, -2.6674e-02,
        -3.9902e-02, -2.8680e-02, -4.4570e-02,  5.4610e-02, -2.8582e-02,
         7.7404e-03,  4.7006e-02,  3.3269e-02,  2.0916e-02,  3.8764e-02,
        -1.2321e-02, -2.1961e-02, -2.1764e-02,  5.0976e-02, -7.9776e-04,
         4.4218e-02, -2.8111e-02,  2.8389e-02, -7.8299e-02,  7.2765e-03,
         1.6493e-02, -1.8140e-02,  9.3057e-03,  4.5327e-02, -2.9592e-02,
        -1.7921e-02, -1.1795e-02, -1.2838e-02, -6.8510e-02, -5.1670e-02,
        -3.9784e-02, -4.4713e-02, -9.4657e-03,  1.2554e-02,  2.1202e-03,
         1.0605e-02,  4.9454e-02, -1.6780e-02, -1.8275e-02, -2.2204e-03,
         4.5831e-02,  2.9426e-02, -4.1674e-02, -2.9240e-02, -4.7333e-02,
        -2.7686e-03, -1.2143e-02,  6.4905e-02, -3.5116e-02, -8.5784e-03,
